{
    "name": "Mega Asteroids",
    "players": [
        2,
        20
    ],
    "planets": [
        {
            "name": "Asteroid A",
            "mass": 5000,
            "position_x": 20000,
            "position_y": 0.00146484375,
            "velocity_x": -0.000018491984519641846,
            "velocity_y": 158.11387634277344,
            "required_thrust_to_move": 1,
            "starting_planet": true,
            "respawn": false,
            "start_destroyed": false,
            "min_spawn_delay": 0,
            "max_spawn_delay": 0,
            "planet": {
                "seed": 69781320,
                "radius": 250,
                "heightRange": 0,
                "waterHeight": 0,
                "waterDepth": 100,
                "temperature": 0,
                "metalDensity": 100,
                "metalClusters": 100,
                "metalSpotLimit": -1,
                "biomeScale": 50,
                "biome": "moon",
                "symmetryType": "none",
                "symmetricalMetal": false,
                "symmetricalStarts": false,
                "numArmies": 2,
                "landingZonesPerArmy": 0,
                "landingZoneSize": 0
            },
            "planetCSG": [
                {
                    "spec": "/pa/terrain/moon/brushes/moon_crater_02.json",
                    "weight": [
                        2,
                        2,
                        2,
                        2
                    ],
                    "proj": "BP_Bend",
                    "op": "BO_Subtract",
                    "transform": [
                        -0.04876752942800522,
                        -0.5615172982215881,
                        -0.4326142966747284,
                        -151.53497314453125,
                        0.4824574589729309,
                        0.29140135645866394,
                        -0.4326142966747284,
                        -151.53497314453125,
                        0.5193184018135071,
                        -0.323448121547699,
                        0.3612821698188782,
                        126.5489501953125
                    ],
                    "scale": [
                        0.7105175256729126,
                        0.7105175256729126,
                        0.7105175256729126
                    ],
                    "rotation": 1.3424369096755981,
                    "position": [
                        -151.5349884033203,
                        -151.5349884033203,
                        126.54896545410156
                    ],
                    "height": 248.878173828125,
                    "weightHard": true,
                    "weightScale": [
                        1,
                        1,
                        1
                    ],
                    "mirrored": false,
                    "twinId": 0,
                    "flooded": false,
                    "pathable": true,
                    "mergeable": true,
                    "no_features": false
                },
                {
                    "spec": "/pa/terrain/moon/brushes/moon_crater_02.json",
                    "weight": [
                        2,
                        2,
                        2,
                        2
                    ],
                    "proj": "BP_Bend",
                    "op": "BO_Subtract",
                    "transform": [
                        0.2483086884021759,
                        0.4567713737487793,
                        -0.3918490707874298,
                        -152.4136505126953,
                        0.5999182462692261,
                        -0.1542060524225235,
                        0.20040366053581238,
                        77.94902801513672,
                        0.04779048264026642,
                        -0.4375195801258087,
                        -0.4797244966030121,
                        -186.59368896484375
                    ],
                    "scale": [
                        0.6510322093963623,
                        0.6510322093963623,
                        0.6510322093963623
                    ],
                    "rotation": 0.9892468452453613,
                    "position": [
                        -152.4136199951172,
                        77.94901275634766,
                        -186.59368896484375
                    ],
                    "height": 253.22555541992188,
                    "weightHard": true,
                    "weightScale": [
                        1,
                        1,
                        1
                    ],
                    "mirrored": false,
                    "twinId": 0,
                    "flooded": false,
                    "pathable": true,
                    "mergeable": true,
                    "no_features": false
                },
                {
                    "spec": "/pa/terrain/moon/brushes/moon_crater_02.json",
                    "weight": [
                        2,
                        2,
                        2,
                        2
                    ],
                    "proj": "BP_Bend",
                    "op": "BO_Subtract",
                    "transform": [
                        0.5926728844642639,
                        -0.6546921730041504,
                        0.34180229902267456,
                        89.52906799316406,
                        0.6586060523986816,
                        0.2702009081840515,
                        -0.6244529485702515,
                        -163.5644073486328,
                        0.33419886231422424,
                        0.6285550594329834,
                        0.624453067779541,
                        163.56443786621094
                    ],
                    "scale": [
                        0.946948766708374,
                        0.946948766708374,
                        0.946948766708374
                    ],
                    "rotation": 0.9894962906837463,
                    "position": [
                        89.52908325195312,
                        -163.5644073486328,
                        163.56442260742188
                    ],
                    "height": 248.03648376464844,
                    "weightHard": true,
                    "weightScale": [
                        1,
                        1,
                        1
                    ],
                    "mirrored": false,
                    "twinId": 0,
                    "flooded": false,
                    "pathable": true,
                    "mergeable": true,
                    "no_features": false
                },
                {
                    "spec": "/pa/terrain/moon/brushes/moon_crater_02.json",
                    "weight": [
                        2,
                        2,
                        2,
                        2
                    ],
                    "proj": "BP_Bend",
                    "op": "BO_Subtract",
                    "transform": [
                        0.20348083972930908,
                        -0.9794697761535645,
                        -0.41730156540870667,
                        -96.43524169921875,
                        0.027651429176330566,
                        -0.4198495149612427,
                        0.9989333152770996,
                        230.845947265625,
                        -1.0643011331558228,
                        -0.19817019999027252,
                        -0.053829651325941086,
                        -12.43962574005127
                    ],
                    "scale": [
                        1.0839308500289917,
                        1.0839308500289917,
                        1.0839308500289917
                    ],
                    "rotation": 1.7824183702468872,
                    "position": [
                        -96.43524932861328,
                        230.84596252441406,
                        -12.439606666564941
                    ],
                    "height": 250.4882354736328,
                    "weightHard": true,
                    "weightScale": [
                        1,
                        1,
                        1
                    ],
                    "mirrored": false,
                    "twinId": 0,
                    "flooded": false,
                    "pathable": true,
                    "mergeable": true,
                    "no_features": false
                },
                {
                    "spec": "/pa/terrain/moon/brushes/moon_crater_02.json",
                    "weight": [
                        2,
                        2,
                        2,
                        2
                    ],
                    "proj": "BP_Bend",
                    "op": "BO_Subtract",
                    "transform": [
                        -0.38562268018722534,
                        -0.09021446108818054,
                        -1.3243207931518555,
                        -240.951171875,
                        -0.08052471280097961,
                        1.37812340259552,
                        -0.07043196260929108,
                        -12.814616203308105,
                        1.324945330619812,
                        0.05749993026256561,
                        -0.38972151279449463,
                        -70.90718078613281
                    ],
                    "scale": [
                        1.3822696208953857,
                        1.3822696208953857,
                        1.3822696208953857
                    ],
                    "rotation": 0.009762649424374104,
                    "position": [
                        -240.951171875,
                        -12.814616203308105,
                        -70.90719604492188
                    ],
                    "height": 251.49456787109375,
                    "weightHard": true,
                    "weightScale": [
                        1,
                        1,
                        1
                    ],
                    "mirrored": false,
                    "twinId": 0,
                    "flooded": false,
                    "pathable": true,
                    "mergeable": true,
                    "no_features": false
                },
                {
                    "spec": "/pa/terrain/moon/brushes/moon_crater_02.json",
                    "weight": [
                        2,
                        2,
                        2,
                        2
                    ],
                    "proj": "BP_Bend",
                    "op": "BO_Subtract",
                    "transform": [
                        0.2801218628883362,
                        -0.6187225580215454,
                        -0.10652218014001846,
                        -38.57952880859375,
                        0.6244863271713257,
                        0.26257824897766113,
                        0.1170569434762001,
                        42.39493942260742,
                        -0.06466394662857056,
                        -0.14445719122886658,
                        0.6690168380737305,
                        242.30027770996094
                    ],
                    "scale": [
                        0.6874829530715942,
                        0.6874829530715942,
                        0.6874829530715942
                    ],
                    "rotation": 1.1591988801956177,
                    "position": [
                        -38.579532623291016,
                        42.39494323730469,
                        242.30027770996094
                    ],
                    "height": 248.98822021484375,
                    "weightHard": true,
                    "weightScale": [
                        1,
                        1,
                        1
                    ],
                    "mirrored": false,
                    "twinId": 0,
                    "flooded": false,
                    "pathable": true,
                    "mergeable": true,
                    "no_features": false
                },
                {
                    "spec": "/pa/terrain/moon/brushes/moon_crater_02.json",
                    "weight": [
                        2,
                        2,
                        2,
                        2
                    ],
                    "proj": "BP_Bend",
                    "op": "BO_Subtract",
                    "transform": [
                        0.924690306186676,
                        0.2938467860221863,
                        0.2151481956243515,
                        54.50699996948242,
                        0.362451434135437,
                        -0.6852186918258667,
                        -0.6219255924224854,
                        -157.56256103515625,
                        -0.035546764731407166,
                        0.6571275591850281,
                        -0.744719386100769,
                        -188.67190551757812
                    ],
                    "scale": [
                        0.9938243627548218,
                        0.9938243627548218,
                        0.9938243627548218
                    ],
                    "rotation": 0.27901074290275574,
                    "position": [
                        54.50698471069336,
                        -157.56251525878906,
                        -188.6719207763672
                    ],
                    "height": 251.78173828125,
                    "weightHard": true,
                    "weightScale": [
                        1,
                        1,
                        1
                    ],
                    "mirrored": false,
                    "twinId": 0,
                    "flooded": false,
                    "pathable": true,
                    "mergeable": true,
                    "no_features": false
                }
            ],
            "metal_spots": [
                [
                    9.515974998474121,
                    248.60543823242188,
                    -17.080366134643555
                ],
                [
                    -37.00214385986328,
                    245.3459014892578,
                    21.881166458129883
                ],
                [
                    28.358304977416992,
                    246.2930450439453,
                    19.17220687866211
                ],
                [
                    -54.27933883666992,
                    238.55911254882812,
                    -52.34678268432617
                ],
                [
                    -43.08742141723633,
                    246.01878356933594,
                    -11.665980339050293
                ],
                [
                    -75.3692398071289,
                    228.3936004638672,
                    -11.026062965393066
                ],
                [
                    16.68113136291504,
                    230.77655029296875,
                    -95.15762329101562
                ],
                [
                    7.181646347045898,
                    242.2659912109375,
                    -60.943115234375
                ],
                [
                    -20.489259719848633,
                    242.59449768066406,
                    -56.99767303466797
                ],
                [
                    -16.99472427368164,
                    231.34503173828125,
                    -94.4739990234375
                ],
                [
                    -138.5680694580078,
                    207.261962890625,
                    9.533403396606445
                ],
                [
                    -142.6961212158203,
                    199.4506378173828,
                    48.14813232421875
                ],
                [
                    -107.07894134521484,
                    215.073974609375,
                    -5.044776439666748
                ],
                [
                    -92.9200668334961,
                    224.74835205078125,
                    31.25703239440918
                ],
                [
                    -71.90986633300781,
                    222.13829040527344,
                    86.36567687988281
                ],
                [
                    -82.36918640136719,
                    187.32362365722656,
                    140.48207092285156
                ],
                [
                    -31.537029266357422,
                    216.43112182617188,
                    117.22500610351562
                ],
                [
                    -37.209014892578125,
                    196.9051971435547,
                    145.61215209960938
                ],
                [
                    77.2489242553711,
                    234.68301391601562,
                    -25.44710922241211
                ],
                [
                    105.62835693359375,
                    219.80775451660156,
                    -47.19676208496094
                ],
                [
                    118.17041778564453,
                    203.24769592285156,
                    -83.3592529296875
                ],
                [
                    55.895668029785156,
                    235.72509765625,
                    -59.235130310058594
                ],
                [
                    69.7372817993164,
                    202.6433868408203,
                    121.81265258789062
                ],
                [
                    35.2617301940918,
                    223.16468811035156,
                    101.16496276855469
                ],
                [
                    40.453575134277344,
                    209.58602905273438,
                    124.73833465576172
                ],
                [
                    -140.66561889648438,
                    175.83045959472656,
                    -113.33781433105469
                ],
                [
                    -99.79146575927734,
                    185.404296875,
                    -138.1129913330078
                ],
                [
                    -106.07755279541016,
                    203.87478637695312,
                    -102.11534118652344
                ],
                [
                    63.01200485229492,
                    222.5181121826172,
                    -95.05599212646484
                ],
                [
                    117.5908432006836,
                    180.51402282714844,
                    -126.95985412597656
                ],
                [
                    84.50627136230469,
                    199.79591369628906,
                    -125.00727844238281
                ],
                [
                    -132.82937622070312,
                    133.03250122070312,
                    163.2723846435547
                ],
                [
                    -117.79840850830078,
                    166.32073974609375,
                    142.6798095703125
                ],
                [
                    -85.52526092529297,
                    151.66761779785156,
                    176.78749084472656
                ],
                [
                    -150.71151733398438,
                    159.97100830078125,
                    117.74732971191406
                ],
                [
                    175.90321350097656,
                    165.3902130126953,
                    -57.9416389465332
                ],
                [
                    183.04798889160156,
                    165.57232666015625,
                    -15.991342544555664
                ],
                [
                    30.820653915405273,
                    135.17857360839844,
                    204.4721221923828
                ],
                [
                    34.53517150878906,
                    186.21005249023438,
                    159.37428283691406
                ],
                [
                    17.289648056030273,
                    157.4907989501953,
                    190.00462341308594
                ],
                [
                    70.5505599975586,
                    148.8321990966797,
                    183.8275909423828
                ],
                [
                    31.59162712097168,
                    180.072509765625,
                    -172.49722290039062
                ],
                [
                    84.69558715820312,
                    160.38876342773438,
                    -173.71173095703125
                ],
                [
                    70.66311645507812,
                    133.7498016357422,
                    -201.42433166503906
                ],
                [
                    31.985210418701172,
                    144.90248107910156,
                    -203.35977172851562
                ],
                [
                    -215.11903381347656,
                    115.62871551513672,
                    53.924686431884766
                ],
                [
                    -186.27090454101562,
                    143.43426513671875,
                    85.46745300292969
                ],
                [
                    -174.70108032226562,
                    124.38245391845703,
                    127.90736389160156
                ],
                [
                    -204.7241973876953,
                    105.79450225830078,
                    98.11306762695312
                ],
                [
                    165.9727325439453,
                    153.91476440429688,
                    94.829345703125
                ],
                [
                    164.69149780273438,
                    170.7591094970703,
                    65.33480834960938
                ],
                [
                    196.49644470214844,
                    145.38475036621094,
                    29.785642623901367
                ],
                [
                    -126.47775268554688,
                    130.08607482910156,
                    -176.0043182373047
                ],
                [
                    -90.99237060546875,
                    165.77621459960938,
                    -167.28663635253906
                ],
                [
                    -140.18296813964844,
                    153.10670471191406,
                    -143.3975372314453
                ],
                [
                    -90.92395782470703,
                    134.0955810546875,
                    -194.11253356933594
                ],
                [
                    -88.68675994873047,
                    125.17018127441406,
                    194.61041259765625
                ],
                [
                    -30.06268882751465,
                    136.99383544921875,
                    203.82061767578125
                ],
                [
                    -62.275089263916016,
                    126.40013122558594,
                    203.38955688476562
                ],
                [
                    159.10552978515625,
                    137.6699676513672,
                    -135.23985290527344
                ],
                [
                    150.94407653808594,
                    168.19577026367188,
                    -105.30125427246094
                ],
                [
                    126.43087768554688,
                    159.5233154296875,
                    -145.8562774658203
                ],
                [
                    -234.2242431640625,
                    79.18790435791016,
                    -40.0845947265625
                ],
                [
                    -227.91748046875,
                    102.276123046875,
                    6.081207275390625
                ],
                [
                    -220.2215576171875,
                    115.71002960205078,
                    -33.51864242553711
                ],
                [
                    -219.36077880859375,
                    102.32172393798828,
                    -66.43244934082031
                ],
                [
                    111.88119506835938,
                    140.97470092773438,
                    168.4106903076172
                ],
                [
                    92.50140380859375,
                    120.32147216796875,
                    194.50802612304688
                ],
                [
                    -0.21379472315311432,
                    104.0339126586914,
                    -229.31732177734375
                ],
                [
                    -2.8704450130462646,
                    153.46316528320312,
                    -199.20204162597656
                ],
                [
                    -178.84634399414062,
                    93.15308380126953,
                    147.9823760986328
                ],
                [
                    -174.84881591796875,
                    58.29036331176758,
                    168.85093688964844
                ],
                [
                    -195.63909912109375,
                    65.80533599853516,
                    141.64907836914062
                ],
                [
                    -144.9185791015625,
                    96.32682037353516,
                    178.77841186523438
                ],
                [
                    208.249755859375,
                    132.73374938964844,
                    -4.782824993133545
                ],
                [
                    208.90863037109375,
                    127.98650360107422,
                    -33.80813217163086
                ],
                [
                    219.421875,
                    112.29204559326172,
                    18.048681259155273
                ],
                [
                    181.4783935546875,
                    166.0138397216797,
                    18.37221908569336
                ],
                [
                    174.18373107910156,
                    123.84384155273438,
                    120.73045349121094
                ],
                [
                    200.9418487548828,
                    121.27668762207031,
                    72.697265625
                ],
                [
                    197.59872436523438,
                    87.0075912475586,
                    116.62508392333984
                ],
                [
                    -62.312232971191406,
                    97.75619506835938,
                    -224.8123779296875
                ],
                [
                    -106.10872650146484,
                    45.89287185668945,
                    -224.346435546875
                ],
                [
                    110.59693908691406,
                    92.05575561523438,
                    200.4696044921875
                ],
                [
                    67.30764770507812,
                    119.59466552734375,
                    205.1729278564453
                ],
                [
                    79.91577911376953,
                    48.35671615600586,
                    227.72361755371094
                ],
                [
                    107.69804382324219,
                    60.9420051574707,
                    213.5290069580078
                ],
                [
                    66.61714172363281,
                    65.33138275146484,
                    -234.3765411376953
                ],
                [
                    18.709026336669922,
                    51.555580139160156,
                    -245.2396240234375
                ],
                [
                    166.88026428222656,
                    86.89041900634766,
                    158.53057861328125
                ],
                [
                    174.10369873046875,
                    45.891380310058594,
                    167.7572784423828
                ],
                [
                    154.44569396972656,
                    50.716548919677734,
                    184.77532958984375
                ],
                [
                    -2.7761197090148926,
                    0.621120810508728,
                    -251.21475219726562
                ],
                [
                    -29.805742263793945,
                    73.56301879882812,
                    -239.16549682617188
                ],
                [
                    -38.512081146240234,
                    28.598281860351562,
                    -247.09066772460938
                ],
                [
                    -59.82398223876953,
                    -0.6765267848968506,
                    -244.71804809570312
                ],
                [
                    245.48361206054688,
                    26.494401931762695,
                    -27.19099998474121
                ],
                [
                    236.74111938476562,
                    70.70095825195312,
                    -18.651052474975586
                ],
                [
                    232.00648498535156,
                    50.56496047973633,
                    -74.30339050292969
                ],
                [
                    227.4512176513672,
                    90.52781677246094,
                    -37.826412200927734
                ],
                [
                    -189.78045654296875,
                    21.53186798095703,
                    -164.583251953125
                ],
                [
                    -218.3882293701172,
                    15.204054832458496,
                    -110.6546859741211
                ],
                [
                    -204.07199096679688,
                    -24.46721839904785,
                    -145.55918884277344
                ],
                [
                    -217.76934814453125,
                    -15.160964965820312,
                    -101.69430541992188
                ],
                [
                    222.37716674804688,
                    54.23375701904297,
                    89.521728515625
                ],
                [
                    228.64511108398438,
                    -3.1683576107025146,
                    91.9769515991211
                ],
                [
                    211.08888244628906,
                    7.762126922607422,
                    126.18193817138672
                ],
                [
                    -104.75296020507812,
                    -3.6836605072021484,
                    -229.55810546875
                ],
                [
                    -139.3440704345703,
                    25.738370895385742,
                    -209.33242797851562
                ],
                [
                    -137.35935974121094,
                    -31.787185668945312,
                    -209.6698760986328
                ],
                [
                    -91.76150512695312,
                    -40.10187530517578,
                    -232.34786987304688
                ],
                [
                    -55.796390533447266,
                    -34.422813415527344,
                    239.2264404296875
                ],
                [
                    -97.309814453125,
                    5.9141526222229,
                    228.60513305664062
                ],
                [
                    -54.81716537475586,
                    -0.7359846830368042,
                    242.10418701171875
                ],
                [
                    -98.2970199584961,
                    -29.141740798950195,
                    226.29176330566406
                ],
                [
                    156.341064453125,
                    20.719314575195312,
                    188.6478271484375
                ],
                [
                    121.41661834716797,
                    32.29148864746094,
                    211.55859375
                ],
                [
                    128.99942016601562,
                    -23.375499725341797,
                    208.61585998535156
                ],
                [
                    243.80947875976562,
                    26.96590805053711,
                    33.226951599121094
                ],
                [
                    248.23843383789062,
                    -6.511350154876709,
                    3.5105249881744385
                ],
                [
                    242.59158325195312,
                    50.30849838256836,
                    9.886039733886719
                ],
                [
                    244.74295043945312,
                    -21.79037857055664,
                    31.91940689086914
                ],
                [
                    -173.0868377685547,
                    -31.356616973876953,
                    -180.8323516845703
                ],
                [
                    -173.22457885742188,
                    -73.1681900024414,
                    -168.43870544433594
                ],
                [
                    177.46311950683594,
                    -4.379537105560303,
                    -177.04449462890625
                ],
                [
                    133.13771057128906,
                    -40.09565734863281,
                    -209.92706298828125
                ],
                [
                    140.5109100341797,
                    0.3792380690574646,
                    -208.67091369628906
                ],
                [
                    -245.0181427001953,
                    -46.44960021972656,
                    21.569168090820312
                ],
                [
                    -234.85980224609375,
                    -79.22747039794922,
                    34.47465515136719
                ],
                [
                    -125.82521057128906,
                    -82.95613861083984,
                    198.6553497314453
                ],
                [
                    -128.59718322753906,
                    -56.47084045410156,
                    205.89468383789062
                ],
                [
                    113.53133392333984,
                    -82.83958435058594,
                    -209.21348571777344
                ],
                [
                    72.97735595703125,
                    -32.19633102416992,
                    -238.3011016845703
                ],
                [
                    57.85281753540039,
                    -75.44332122802734,
                    -232.5919952392578
                ],
                [
                    100.91267395019531,
                    -42.34055709838867,
                    -226.7289276123047
                ],
                [
                    237.58065795898438,
                    -59.0462646484375,
                    41.23379135131836
                ],
                [
                    231.30715942382812,
                    -46.29443359375,
                    74.2743148803711
                ],
                [
                    222.60501098632812,
                    -79.08546447753906,
                    74.63289642333984
                ],
                [
                    243.10498046875,
                    -49.03636169433594,
                    13.86568546295166
                ],
                [
                    -87.95686340332031,
                    -107.02503204345703,
                    -211.31739807128906
                ],
                [
                    -131.02468872070312,
                    -68.05240631103516,
                    -205.07498168945312
                ],
                [
                    -117.55235290527344,
                    -121.1756820678711,
                    -187.97439575195312
                ],
                [
                    155.02761840820312,
                    -47.15454864501953,
                    185.98597717285156
                ],
                [
                    184.7577667236328,
                    -31.18292236328125,
                    160.475830078125
                ],
                [
                    157.90899658203125,
                    -104.19583129882812,
                    159.35528564453125
                ],
                [
                    185.27137756347656,
                    -62.515281677246094,
                    150.88449096679688
                ],
                [
                    2.860391616821289,
                    -85.48682403564453,
                    -236.4243621826172
                ],
                [
                    40.568782806396484,
                    -94.77529907226562,
                    -229.56056213378906
                ],
                [
                    -28.00764274597168,
                    -83.19346618652344,
                    -235.8646697998047
                ],
                [
                    15.719792366027832,
                    -128.44918823242188,
                    -215.7493438720703
                ],
                [
                    -130.4415740966797,
                    -142.54519653320312,
                    155.98583984375
                ],
                [
                    -145.62791442871094,
                    -105.24695587158203,
                    171.89007568359375
                ],
                [
                    -110.07960510253906,
                    -128.45535278320312,
                    182.030029296875
                ],
                [
                    -151.44149780273438,
                    -139.356689453125,
                    128.4159393310547
                ],
                [
                    -189.1513214111328,
                    -105.1337890625,
                    -129.53411865234375
                ],
                [
                    -161.59368896484375,
                    -117.20764923095703,
                    -154.45382690429688
                ],
                [
                    -142.7420196533203,
                    -155.5120391845703,
                    -137.39254760742188
                ],
                [
                    -189.2272186279297,
                    -130.3291778564453,
                    -102.7104263305664
                ],
                [
                    192.16445922851562,
                    -111.3344955444336,
                    109.1678466796875
                ],
                [
                    211.666259765625,
                    -79.34584045410156,
                    101.05125427246094
                ],
                [
                    197.98509216308594,
                    -127.81151580810547,
                    76.59445190429688
                ],
                [
                    -24.94837188720703,
                    -134.58541870117188,
                    -211.35414123535156
                ],
                [
                    -45.18787384033203,
                    -105.44573211669922,
                    -224.2803955078125
                ],
                [
                    -50.01661682128906,
                    -144.83517456054688,
                    195.7788543701172
                ],
                [
                    -69.66149139404297,
                    -169.42787170410156,
                    168.64599609375
                ],
                [
                    -50.11579513549805,
                    -119.0125961303711,
                    212.44346618652344
                ],
                [
                    -33.12868881225586,
                    -175.35108947753906,
                    173.74217224121094
                ],
                [
                    208.24937438964844,
                    -84.5129165649414,
                    -109.0576171875
                ],
                [
                    221.69569396972656,
                    -99.24177551269531,
                    -52.963470458984375
                ],
                [
                    -166.00775146484375,
                    -180.65858459472656,
                    -49.84478759765625
                ],
                [
                    -197.84902954101562,
                    -142.6249237060547,
                    -57.60972213745117
                ],
                [
                    -114.55778503417969,
                    -175.36875915527344,
                    133.69747924804688
                ],
                [
                    -141.19300842285156,
                    -180.13967895507812,
                    97.31918334960938
                ],
                [
                    -106.1468734741211,
                    -204.27418518066406,
                    93.90200805664062
                ],
                [
                    -160.53643798828125,
                    -174.82456970214844,
                    75.2850341796875
                ],
                [
                    208.16139221191406,
                    -135.554931640625,
                    -2.175028085708618
                ],
                [
                    220.88143920898438,
                    -111.71722412109375,
                    19.783510208129883
                ],
                [
                    193.92840576171875,
                    -154.7161102294922,
                    -14.434998512268066
                ],
                [
                    186.57325744628906,
                    -150.6999053955078,
                    61.89662170410156
                ],
                [
                    34.469642639160156,
                    -169.52294921875,
                    177.97129821777344
                ],
                [
                    -22.144861221313477,
                    -138.35086059570312,
                    205.12522888183594
                ],
                [
                    23.548355102539062,
                    -135.12425231933594,
                    206.24981689453125
                ],
                [
                    50.679229736328125,
                    -147.0931854248047,
                    192.62295532226562
                ],
                [
                    -147.47718811035156,
                    -200.1632537841797,
                    -26.52293586730957
                ],
                [
                    -153.84649658203125,
                    -192.42825317382812,
                    38.265682220458984
                ],
                [
                    -134.2421875,
                    -210.37181091308594,
                    6.893367767333984
                ],
                [
                    -185.54173278808594,
                    -166.74575805664062,
                    7.238163948059082
                ],
                [
                    164.52822875976562,
                    -154.2732391357422,
                    101.13610076904297
                ],
                [
                    123.39904022216797,
                    -163.01148986816406,
                    138.37709045410156
                ],
                [
                    169.24050903320312,
                    -128.9919891357422,
                    125.75958251953125
                ],
                [
                    129.67071533203125,
                    -187.77450561523438,
                    95.26701354980469
                ],
                [
                    -119.34931182861328,
                    -194.42367553710938,
                    -104.91951751708984
                ],
                [
                    -96.89125061035156,
                    -222.8431396484375,
                    -61.764461517333984
                ],
                [
                    -140.32533264160156,
                    -190.1497039794922,
                    -83.92758178710938
                ],
                [
                    54.60689926147461,
                    -208.62037658691406,
                    122.56307983398438
                ],
                [
                    85.28652954101562,
                    -188.97340393066406,
                    130.85704040527344
                ],
                [
                    56.59654998779297,
                    -165.80715942382812,
                    -168.39854431152344
                ],
                [
                    53.121856689453125,
                    -208.51011657714844,
                    -127.96458435058594
                ],
                [
                    105.7795181274414,
                    -176.22726440429688,
                    -144.1084442138672
                ],
                [
                    -80.714599609375,
                    -230.0279083251953,
                    49.53700637817383
                ],
                [
                    -136.2307586669922,
                    -200.0089569091797,
                    59.156272888183594
                ],
                [
                    -115.58975219726562,
                    -217.43685913085938,
                    38.27320861816406
                ],
                [
                    -73.3275146484375,
                    -237.0242919921875,
                    24.415197372436523
                ],
                [
                    166.1034393310547,
                    -183.53463745117188,
                    8.315254211425781
                ],
                [
                    122.47377014160156,
                    -208.0400848388672,
                    50.20903015136719
                ],
                [
                    156.34552001953125,
                    -175.8426513671875,
                    75.6741943359375
                ],
                [
                    153.8225860595703,
                    -189.9307861328125,
                    37.08805465698242
                ],
                [
                    14.916520118713379,
                    -215.24317932128906,
                    124.44510650634766
                ],
                [
                    -15.145609855651855,
                    -217.06748962402344,
                    122.33232116699219
                ],
                [
                    -6.694502353668213,
                    -235.2519989013672,
                    83.66911315917969
                ],
                [
                    -42.452518463134766,
                    -219.35780334472656,
                    112.42431640625
                ],
                [
                    106.58082580566406,
                    -219.20396423339844,
                    -44.11077880859375
                ],
                [
                    116.13301849365234,
                    -202.15391540527344,
                    -89.13253784179688
                ],
                [
                    140.82870483398438,
                    -197.5030517578125,
                    -55.08713150024414
                ],
                [
                    104.41567993164062,
                    -198.43771362304688,
                    104.50825500488281
                ],
                [
                    80.5013198852539,
                    -225.27354431152344,
                    62.30698776245117
                ],
                [
                    55.12384796142578,
                    -220.82666015625,
                    98.28773498535156
                ],
                [
                    88.89317321777344,
                    -214.50245666503906,
                    85.2574234008789
                ],
                [
                    -2.4202871322631836,
                    -219.63539123535156,
                    -119.95124816894531
                ],
                [
                    52.824859619140625,
                    -222.27639770507812,
                    -101.49100494384766
                ],
                [
                    32.69493103027344,
                    -239.90252685546875,
                    -59.30623245239258
                ],
                [
                    -36.40999221801758,
                    -242.9099884033203,
                    44.18719482421875
                ],
                [
                    -13.545753479003906,
                    -249.021728515625,
                    15.577560424804688
                ],
                [
                    -8.665295600891113,
                    -242.2677459716797,
                    -60.40503692626953
                ],
                [
                    -12.169575691223145,
                    -248.8479461669922,
                    -16.162582397460938
                ],
                [
                    24.42124366760254,
                    -245.8438262939453,
                    -29.766958236694336
                ],
                [
                    -45.79674530029297,
                    -234.19796752929688,
                    -75.45611572265625
                ],
                [
                    48.20439910888672,
                    -243.55270385742188,
                    11.881708145141602
                ],
                [
                    30.366531372070312,
                    -238.96278381347656,
                    63.790061950683594
                ],
                [
                    -2.8459877967834473,
                    -245.77407836914062,
                    43.06424331665039
                ],
                [
                    -9.49091911315918,
                    247.2781982421875,
                    26.707923889160156
                ],
                [
                    36.799861907958984,
                    245.18814086914062,
                    -23.283784866333008
                ],
                [
                    -115.96854400634766,
                    -219.95590209960938,
                    -26.278987884521484
                ],
                [
                    -88.86783599853516,
                    -233.2090301513672,
                    -8.695664405822754
                ],
                [
                    -43.8983268737793,
                    -244.0902099609375,
                    -30.286211013793945
                ]
            ],
            "landing_zones": {
                "list": [
                    [
                        0,
                        248.90611267089844,
                        -0.00001344509200862376
                    ],
                    [
                        -80.21199798583984,
                        -235.42611694335938,
                        -21.591489791870117
                    ]
                ],
                "rules": [
                    {
                        "min": 2,
                        "max": 10
                    },
                    {
                        "min": 12,
                        "max": 10
                    }
                ]
            }
        },
        {
            "name": "Asteroid B",
            "mass": 5000,
            "position_x": 25000,
            "position_y": -0.0007946626865305007,
            "velocity_x": -0.000001686432710812369,
            "velocity_y": 141.42135620117188,
            "required_thrust_to_move": 1,
            "starting_planet": true,
            "respawn": false,
            "start_destroyed": false,
            "min_spawn_delay": 0,
            "max_spawn_delay": 0,
            "planet": {
                "seed": 69781320,
                "radius": 250,
                "heightRange": 0,
                "waterHeight": 0,
                "waterDepth": 100,
                "temperature": 0,
                "metalDensity": 100,
                "metalClusters": 100,
                "metalSpotLimit": -1,
                "biomeScale": 50,
                "biome": "moon",
                "symmetryType": "none",
                "symmetricalMetal": false,
                "symmetricalStarts": false,
                "numArmies": 2,
                "landingZonesPerArmy": 0,
                "landingZoneSize": 0
            },
            "planetCSG": [
                {
                    "spec": "/pa/terrain/moon/brushes/moon_crater_02.json",
                    "weight": [
                        2,
                        2,
                        2,
                        2
                    ],
                    "proj": "BP_Bend",
                    "op": "BO_Subtract",
                    "transform": [
                        -0.04876752942800522,
                        -0.5615172982215881,
                        -0.4326142966747284,
                        -151.53497314453125,
                        0.4824574589729309,
                        0.29140135645866394,
                        -0.4326142966747284,
                        -151.53497314453125,
                        0.5193184018135071,
                        -0.323448121547699,
                        0.3612821698188782,
                        126.5489501953125
                    ],
                    "scale": [
                        0.7105175256729126,
                        0.7105175256729126,
                        0.7105175256729126
                    ],
                    "rotation": 1.3424369096755981,
                    "position": [
                        -151.5349884033203,
                        -151.5349884033203,
                        126.54896545410156
                    ],
                    "height": 248.878173828125,
                    "weightHard": true,
                    "weightScale": [
                        1,
                        1,
                        1
                    ],
                    "mirrored": false,
                    "twinId": 0,
                    "flooded": false,
                    "pathable": true,
                    "mergeable": true,
                    "no_features": false
                },
                {
                    "spec": "/pa/terrain/moon/brushes/moon_crater_02.json",
                    "weight": [
                        2,
                        2,
                        2,
                        2
                    ],
                    "proj": "BP_Bend",
                    "op": "BO_Subtract",
                    "transform": [
                        0.2483086884021759,
                        0.4567713737487793,
                        -0.3918490707874298,
                        -152.4136505126953,
                        0.5999182462692261,
                        -0.1542060524225235,
                        0.20040366053581238,
                        77.94902801513672,
                        0.04779048264026642,
                        -0.4375195801258087,
                        -0.4797244966030121,
                        -186.59368896484375
                    ],
                    "scale": [
                        0.6510322093963623,
                        0.6510322093963623,
                        0.6510322093963623
                    ],
                    "rotation": 0.9892468452453613,
                    "position": [
                        -152.4136199951172,
                        77.94901275634766,
                        -186.59368896484375
                    ],
                    "height": 253.22555541992188,
                    "weightHard": true,
                    "weightScale": [
                        1,
                        1,
                        1
                    ],
                    "mirrored": false,
                    "twinId": 0,
                    "flooded": false,
                    "pathable": true,
                    "mergeable": true,
                    "no_features": false
                },
                {
                    "spec": "/pa/terrain/moon/brushes/moon_crater_02.json",
                    "weight": [
                        2,
                        2,
                        2,
                        2
                    ],
                    "proj": "BP_Bend",
                    "op": "BO_Subtract",
                    "transform": [
                        0.5926728844642639,
                        -0.6546921730041504,
                        0.34180229902267456,
                        89.52906799316406,
                        0.6586060523986816,
                        0.2702009081840515,
                        -0.6244529485702515,
                        -163.5644073486328,
                        0.33419886231422424,
                        0.6285550594329834,
                        0.624453067779541,
                        163.56443786621094
                    ],
                    "scale": [
                        0.946948766708374,
                        0.946948766708374,
                        0.946948766708374
                    ],
                    "rotation": 0.9894962906837463,
                    "position": [
                        89.52908325195312,
                        -163.5644073486328,
                        163.56442260742188
                    ],
                    "height": 248.03648376464844,
                    "weightHard": true,
                    "weightScale": [
                        1,
                        1,
                        1
                    ],
                    "mirrored": false,
                    "twinId": 0,
                    "flooded": false,
                    "pathable": true,
                    "mergeable": true,
                    "no_features": false
                },
                {
                    "spec": "/pa/terrain/moon/brushes/moon_crater_02.json",
                    "weight": [
                        2,
                        2,
                        2,
                        2
                    ],
                    "proj": "BP_Bend",
                    "op": "BO_Subtract",
                    "transform": [
                        0.20348083972930908,
                        -0.9794697761535645,
                        -0.41730156540870667,
                        -96.43524169921875,
                        0.027651429176330566,
                        -0.4198495149612427,
                        0.9989333152770996,
                        230.845947265625,
                        -1.0643011331558228,
                        -0.19817019999027252,
                        -0.053829651325941086,
                        -12.43962574005127
                    ],
                    "scale": [
                        1.0839308500289917,
                        1.0839308500289917,
                        1.0839308500289917
                    ],
                    "rotation": 1.7824183702468872,
                    "position": [
                        -96.43524932861328,
                        230.84596252441406,
                        -12.439606666564941
                    ],
                    "height": 250.4882354736328,
                    "weightHard": true,
                    "weightScale": [
                        1,
                        1,
                        1
                    ],
                    "mirrored": false,
                    "twinId": 0,
                    "flooded": false,
                    "pathable": true,
                    "mergeable": true,
                    "no_features": false
                },
                {
                    "spec": "/pa/terrain/moon/brushes/moon_crater_02.json",
                    "weight": [
                        2,
                        2,
                        2,
                        2
                    ],
                    "proj": "BP_Bend",
                    "op": "BO_Subtract",
                    "transform": [
                        -0.38562268018722534,
                        -0.09021446108818054,
                        -1.3243207931518555,
                        -240.951171875,
                        -0.08052471280097961,
                        1.37812340259552,
                        -0.07043196260929108,
                        -12.814616203308105,
                        1.324945330619812,
                        0.05749993026256561,
                        -0.38972151279449463,
                        -70.90718078613281
                    ],
                    "scale": [
                        1.3822696208953857,
                        1.3822696208953857,
                        1.3822696208953857
                    ],
                    "rotation": 0.009762649424374104,
                    "position": [
                        -240.951171875,
                        -12.814616203308105,
                        -70.90719604492188
                    ],
                    "height": 251.49456787109375,
                    "weightHard": true,
                    "weightScale": [
                        1,
                        1,
                        1
                    ],
                    "mirrored": false,
                    "twinId": 0,
                    "flooded": false,
                    "pathable": true,
                    "mergeable": true,
                    "no_features": false
                },
                {
                    "spec": "/pa/terrain/moon/brushes/moon_crater_02.json",
                    "weight": [
                        2,
                        2,
                        2,
                        2
                    ],
                    "proj": "BP_Bend",
                    "op": "BO_Subtract",
                    "transform": [
                        0.2801218628883362,
                        -0.6187225580215454,
                        -0.10652218014001846,
                        -38.57952880859375,
                        0.6244863271713257,
                        0.26257824897766113,
                        0.1170569434762001,
                        42.39493942260742,
                        -0.06466394662857056,
                        -0.14445719122886658,
                        0.6690168380737305,
                        242.30027770996094
                    ],
                    "scale": [
                        0.6874829530715942,
                        0.6874829530715942,
                        0.6874829530715942
                    ],
                    "rotation": 1.1591988801956177,
                    "position": [
                        -38.579532623291016,
                        42.39494323730469,
                        242.30027770996094
                    ],
                    "height": 248.98822021484375,
                    "weightHard": true,
                    "weightScale": [
                        1,
                        1,
                        1
                    ],
                    "mirrored": false,
                    "twinId": 0,
                    "flooded": false,
                    "pathable": true,
                    "mergeable": true,
                    "no_features": false
                },
                {
                    "spec": "/pa/terrain/moon/brushes/moon_crater_02.json",
                    "weight": [
                        2,
                        2,
                        2,
                        2
                    ],
                    "proj": "BP_Bend",
                    "op": "BO_Subtract",
                    "transform": [
                        0.924690306186676,
                        0.2938467860221863,
                        0.2151481956243515,
                        54.50699996948242,
                        0.362451434135437,
                        -0.6852186918258667,
                        -0.6219255924224854,
                        -157.56256103515625,
                        -0.035546764731407166,
                        0.6571275591850281,
                        -0.744719386100769,
                        -188.67190551757812
                    ],
                    "scale": [
                        0.9938243627548218,
                        0.9938243627548218,
                        0.9938243627548218
                    ],
                    "rotation": 0.27901074290275574,
                    "position": [
                        54.50698471069336,
                        -157.56251525878906,
                        -188.6719207763672
                    ],
                    "height": 251.78173828125,
                    "weightHard": true,
                    "weightScale": [
                        1,
                        1,
                        1
                    ],
                    "mirrored": false,
                    "twinId": 0,
                    "flooded": false,
                    "pathable": true,
                    "mergeable": true,
                    "no_features": false
                }
            ],
            "metal_spots": [
                [
                    9.515974998474121,
                    248.60543823242188,
                    -17.080366134643555
                ],
                [
                    -37.00214385986328,
                    245.3459014892578,
                    21.881166458129883
                ],
                [
                    28.358304977416992,
                    246.2930450439453,
                    19.17220687866211
                ],
                [
                    -54.27933883666992,
                    238.55911254882812,
                    -52.34678268432617
                ],
                [
                    -43.08742141723633,
                    246.01878356933594,
                    -11.665980339050293
                ],
                [
                    -75.3692398071289,
                    228.3936004638672,
                    -11.026062965393066
                ],
                [
                    16.68113136291504,
                    230.77655029296875,
                    -95.15762329101562
                ],
                [
                    7.181646347045898,
                    242.2659912109375,
                    -60.943115234375
                ],
                [
                    -20.489259719848633,
                    242.59449768066406,
                    -56.99767303466797
                ],
                [
                    -16.99472427368164,
                    231.34503173828125,
                    -94.4739990234375
                ],
                [
                    -138.5680694580078,
                    207.261962890625,
                    9.533403396606445
                ],
                [
                    -142.6961212158203,
                    199.4506378173828,
                    48.14813232421875
                ],
                [
                    -107.07894134521484,
                    215.073974609375,
                    -5.044776439666748
                ],
                [
                    -92.9200668334961,
                    224.74835205078125,
                    31.25703239440918
                ],
                [
                    -71.90986633300781,
                    222.13829040527344,
                    86.36567687988281
                ],
                [
                    -82.36918640136719,
                    187.32362365722656,
                    140.48207092285156
                ],
                [
                    -31.537029266357422,
                    216.43112182617188,
                    117.22500610351562
                ],
                [
                    -37.209014892578125,
                    196.9051971435547,
                    145.61215209960938
                ],
                [
                    77.2489242553711,
                    234.68301391601562,
                    -25.44710922241211
                ],
                [
                    105.62835693359375,
                    219.80775451660156,
                    -47.19676208496094
                ],
                [
                    118.17041778564453,
                    203.24769592285156,
                    -83.3592529296875
                ],
                [
                    55.895668029785156,
                    235.72509765625,
                    -59.235130310058594
                ],
                [
                    69.7372817993164,
                    202.6433868408203,
                    121.81265258789062
                ],
                [
                    35.2617301940918,
                    223.16468811035156,
                    101.16496276855469
                ],
                [
                    40.453575134277344,
                    209.58602905273438,
                    124.73833465576172
                ],
                [
                    -140.66561889648438,
                    175.83045959472656,
                    -113.33781433105469
                ],
                [
                    -99.79146575927734,
                    185.404296875,
                    -138.1129913330078
                ],
                [
                    -106.07755279541016,
                    203.87478637695312,
                    -102.11534118652344
                ],
                [
                    63.01200485229492,
                    222.5181121826172,
                    -95.05599212646484
                ],
                [
                    117.5908432006836,
                    180.51402282714844,
                    -126.95985412597656
                ],
                [
                    84.50627136230469,
                    199.79591369628906,
                    -125.00727844238281
                ],
                [
                    -132.82937622070312,
                    133.03250122070312,
                    163.2723846435547
                ],
                [
                    -117.79840850830078,
                    166.32073974609375,
                    142.6798095703125
                ],
                [
                    -85.52526092529297,
                    151.66761779785156,
                    176.78749084472656
                ],
                [
                    -150.71151733398438,
                    159.97100830078125,
                    117.74732971191406
                ],
                [
                    175.90321350097656,
                    165.3902130126953,
                    -57.9416389465332
                ],
                [
                    183.04798889160156,
                    165.57232666015625,
                    -15.991342544555664
                ],
                [
                    30.820653915405273,
                    135.17857360839844,
                    204.4721221923828
                ],
                [
                    34.53517150878906,
                    186.21005249023438,
                    159.37428283691406
                ],
                [
                    17.289648056030273,
                    157.4907989501953,
                    190.00462341308594
                ],
                [
                    70.5505599975586,
                    148.8321990966797,
                    183.8275909423828
                ],
                [
                    31.59162712097168,
                    180.072509765625,
                    -172.49722290039062
                ],
                [
                    84.69558715820312,
                    160.38876342773438,
                    -173.71173095703125
                ],
                [
                    70.66311645507812,
                    133.7498016357422,
                    -201.42433166503906
                ],
                [
                    31.985210418701172,
                    144.90248107910156,
                    -203.35977172851562
                ],
                [
                    -215.11903381347656,
                    115.62871551513672,
                    53.924686431884766
                ],
                [
                    -186.27090454101562,
                    143.43426513671875,
                    85.46745300292969
                ],
                [
                    -174.70108032226562,
                    124.38245391845703,
                    127.90736389160156
                ],
                [
                    -204.7241973876953,
                    105.79450225830078,
                    98.11306762695312
                ],
                [
                    165.9727325439453,
                    153.91476440429688,
                    94.829345703125
                ],
                [
                    164.69149780273438,
                    170.7591094970703,
                    65.33480834960938
                ],
                [
                    196.49644470214844,
                    145.38475036621094,
                    29.785642623901367
                ],
                [
                    -126.47775268554688,
                    130.08607482910156,
                    -176.0043182373047
                ],
                [
                    -90.99237060546875,
                    165.77621459960938,
                    -167.28663635253906
                ],
                [
                    -140.18296813964844,
                    153.10670471191406,
                    -143.3975372314453
                ],
                [
                    -90.92395782470703,
                    134.0955810546875,
                    -194.11253356933594
                ],
                [
                    -88.68675994873047,
                    125.17018127441406,
                    194.61041259765625
                ],
                [
                    -30.06268882751465,
                    136.99383544921875,
                    203.82061767578125
                ],
                [
                    -62.275089263916016,
                    126.40013122558594,
                    203.38955688476562
                ],
                [
                    159.10552978515625,
                    137.6699676513672,
                    -135.23985290527344
                ],
                [
                    150.94407653808594,
                    168.19577026367188,
                    -105.30125427246094
                ],
                [
                    126.43087768554688,
                    159.5233154296875,
                    -145.8562774658203
                ],
                [
                    -234.2242431640625,
                    79.18790435791016,
                    -40.0845947265625
                ],
                [
                    -227.91748046875,
                    102.276123046875,
                    6.081207275390625
                ],
                [
                    -220.2215576171875,
                    115.71002960205078,
                    -33.51864242553711
                ],
                [
                    -219.36077880859375,
                    102.32172393798828,
                    -66.43244934082031
                ],
                [
                    111.88119506835938,
                    140.97470092773438,
                    168.4106903076172
                ],
                [
                    92.50140380859375,
                    120.32147216796875,
                    194.50802612304688
                ],
                [
                    -0.21379472315311432,
                    104.0339126586914,
                    -229.31732177734375
                ],
                [
                    -2.8704450130462646,
                    153.46316528320312,
                    -199.20204162597656
                ],
                [
                    -178.84634399414062,
                    93.15308380126953,
                    147.9823760986328
                ],
                [
                    -174.84881591796875,
                    58.29036331176758,
                    168.85093688964844
                ],
                [
                    -195.63909912109375,
                    65.80533599853516,
                    141.64907836914062
                ],
                [
                    -144.9185791015625,
                    96.32682037353516,
                    178.77841186523438
                ],
                [
                    208.249755859375,
                    132.73374938964844,
                    -4.782824993133545
                ],
                [
                    208.90863037109375,
                    127.98650360107422,
                    -33.80813217163086
                ],
                [
                    219.421875,
                    112.29204559326172,
                    18.048681259155273
                ],
                [
                    181.4783935546875,
                    166.0138397216797,
                    18.37221908569336
                ],
                [
                    174.18373107910156,
                    123.84384155273438,
                    120.73045349121094
                ],
                [
                    200.9418487548828,
                    121.27668762207031,
                    72.697265625
                ],
                [
                    197.59872436523438,
                    87.0075912475586,
                    116.62508392333984
                ],
                [
                    -62.312232971191406,
                    97.75619506835938,
                    -224.8123779296875
                ],
                [
                    -106.10872650146484,
                    45.89287185668945,
                    -224.346435546875
                ],
                [
                    110.59693908691406,
                    92.05575561523438,
                    200.4696044921875
                ],
                [
                    67.30764770507812,
                    119.59466552734375,
                    205.1729278564453
                ],
                [
                    79.91577911376953,
                    48.35671615600586,
                    227.72361755371094
                ],
                [
                    107.69804382324219,
                    60.9420051574707,
                    213.5290069580078
                ],
                [
                    66.61714172363281,
                    65.33138275146484,
                    -234.3765411376953
                ],
                [
                    18.709026336669922,
                    51.555580139160156,
                    -245.2396240234375
                ],
                [
                    166.88026428222656,
                    86.89041900634766,
                    158.53057861328125
                ],
                [
                    174.10369873046875,
                    45.891380310058594,
                    167.7572784423828
                ],
                [
                    154.44569396972656,
                    50.716548919677734,
                    184.77532958984375
                ],
                [
                    -2.7761197090148926,
                    0.621120810508728,
                    -251.21475219726562
                ],
                [
                    -29.805742263793945,
                    73.56301879882812,
                    -239.16549682617188
                ],
                [
                    -38.512081146240234,
                    28.598281860351562,
                    -247.09066772460938
                ],
                [
                    -59.82398223876953,
                    -0.6765267848968506,
                    -244.71804809570312
                ],
                [
                    245.48361206054688,
                    26.494401931762695,
                    -27.19099998474121
                ],
                [
                    236.74111938476562,
                    70.70095825195312,
                    -18.651052474975586
                ],
                [
                    232.00648498535156,
                    50.56496047973633,
                    -74.30339050292969
                ],
                [
                    227.4512176513672,
                    90.52781677246094,
                    -37.826412200927734
                ],
                [
                    -189.78045654296875,
                    21.53186798095703,
                    -164.583251953125
                ],
                [
                    -218.3882293701172,
                    15.204054832458496,
                    -110.6546859741211
                ],
                [
                    -204.07199096679688,
                    -24.46721839904785,
                    -145.55918884277344
                ],
                [
                    -217.76934814453125,
                    -15.160964965820312,
                    -101.69430541992188
                ],
                [
                    222.37716674804688,
                    54.23375701904297,
                    89.521728515625
                ],
                [
                    228.64511108398438,
                    -3.1683576107025146,
                    91.9769515991211
                ],
                [
                    211.08888244628906,
                    7.762126922607422,
                    126.18193817138672
                ],
                [
                    -104.75296020507812,
                    -3.6836605072021484,
                    -229.55810546875
                ],
                [
                    -139.3440704345703,
                    25.738370895385742,
                    -209.33242797851562
                ],
                [
                    -137.35935974121094,
                    -31.787185668945312,
                    -209.6698760986328
                ],
                [
                    -91.76150512695312,
                    -40.10187530517578,
                    -232.34786987304688
                ],
                [
                    -55.796390533447266,
                    -34.422813415527344,
                    239.2264404296875
                ],
                [
                    -97.309814453125,
                    5.9141526222229,
                    228.60513305664062
                ],
                [
                    -54.81716537475586,
                    -0.7359846830368042,
                    242.10418701171875
                ],
                [
                    -98.2970199584961,
                    -29.141740798950195,
                    226.29176330566406
                ],
                [
                    156.341064453125,
                    20.719314575195312,
                    188.6478271484375
                ],
                [
                    121.41661834716797,
                    32.29148864746094,
                    211.55859375
                ],
                [
                    128.99942016601562,
                    -23.375499725341797,
                    208.61585998535156
                ],
                [
                    243.80947875976562,
                    26.96590805053711,
                    33.226951599121094
                ],
                [
                    248.23843383789062,
                    -6.511350154876709,
                    3.5105249881744385
                ],
                [
                    242.59158325195312,
                    50.30849838256836,
                    9.886039733886719
                ],
                [
                    244.74295043945312,
                    -21.79037857055664,
                    31.91940689086914
                ],
                [
                    -173.0868377685547,
                    -31.356616973876953,
                    -180.8323516845703
                ],
                [
                    -173.22457885742188,
                    -73.1681900024414,
                    -168.43870544433594
                ],
                [
                    177.46311950683594,
                    -4.379537105560303,
                    -177.04449462890625
                ],
                [
                    133.13771057128906,
                    -40.09565734863281,
                    -209.92706298828125
                ],
                [
                    140.5109100341797,
                    0.3792380690574646,
                    -208.67091369628906
                ],
                [
                    -245.0181427001953,
                    -46.44960021972656,
                    21.569168090820312
                ],
                [
                    -234.85980224609375,
                    -79.22747039794922,
                    34.47465515136719
                ],
                [
                    -125.82521057128906,
                    -82.95613861083984,
                    198.6553497314453
                ],
                [
                    -128.59718322753906,
                    -56.47084045410156,
                    205.89468383789062
                ],
                [
                    113.53133392333984,
                    -82.83958435058594,
                    -209.21348571777344
                ],
                [
                    72.97735595703125,
                    -32.19633102416992,
                    -238.3011016845703
                ],
                [
                    57.85281753540039,
                    -75.44332122802734,
                    -232.5919952392578
                ],
                [
                    100.91267395019531,
                    -42.34055709838867,
                    -226.7289276123047
                ],
                [
                    237.58065795898438,
                    -59.0462646484375,
                    41.23379135131836
                ],
                [
                    231.30715942382812,
                    -46.29443359375,
                    74.2743148803711
                ],
                [
                    222.60501098632812,
                    -79.08546447753906,
                    74.63289642333984
                ],
                [
                    243.10498046875,
                    -49.03636169433594,
                    13.86568546295166
                ],
                [
                    -87.95686340332031,
                    -107.02503204345703,
                    -211.31739807128906
                ],
                [
                    -131.02468872070312,
                    -68.05240631103516,
                    -205.07498168945312
                ],
                [
                    -117.55235290527344,
                    -121.1756820678711,
                    -187.97439575195312
                ],
                [
                    155.02761840820312,
                    -47.15454864501953,
                    185.98597717285156
                ],
                [
                    184.7577667236328,
                    -31.18292236328125,
                    160.475830078125
                ],
                [
                    157.90899658203125,
                    -104.19583129882812,
                    159.35528564453125
                ],
                [
                    185.27137756347656,
                    -62.515281677246094,
                    150.88449096679688
                ],
                [
                    2.860391616821289,
                    -85.48682403564453,
                    -236.4243621826172
                ],
                [
                    40.568782806396484,
                    -94.77529907226562,
                    -229.56056213378906
                ],
                [
                    -28.00764274597168,
                    -83.19346618652344,
                    -235.8646697998047
                ],
                [
                    15.719792366027832,
                    -128.44918823242188,
                    -215.7493438720703
                ],
                [
                    -130.4415740966797,
                    -142.54519653320312,
                    155.98583984375
                ],
                [
                    -145.62791442871094,
                    -105.24695587158203,
                    171.89007568359375
                ],
                [
                    -110.07960510253906,
                    -128.45535278320312,
                    182.030029296875
                ],
                [
                    -151.44149780273438,
                    -139.356689453125,
                    128.4159393310547
                ],
                [
                    -189.1513214111328,
                    -105.1337890625,
                    -129.53411865234375
                ],
                [
                    -161.59368896484375,
                    -117.20764923095703,
                    -154.45382690429688
                ],
                [
                    -142.7420196533203,
                    -155.5120391845703,
                    -137.39254760742188
                ],
                [
                    -189.2272186279297,
                    -130.3291778564453,
                    -102.7104263305664
                ],
                [
                    192.16445922851562,
                    -111.3344955444336,
                    109.1678466796875
                ],
                [
                    211.666259765625,
                    -79.34584045410156,
                    101.05125427246094
                ],
                [
                    197.98509216308594,
                    -127.81151580810547,
                    76.59445190429688
                ],
                [
                    -24.94837188720703,
                    -134.58541870117188,
                    -211.35414123535156
                ],
                [
                    -45.18787384033203,
                    -105.44573211669922,
                    -224.2803955078125
                ],
                [
                    -50.01661682128906,
                    -144.83517456054688,
                    195.7788543701172
                ],
                [
                    -69.66149139404297,
                    -169.42787170410156,
                    168.64599609375
                ],
                [
                    -50.11579513549805,
                    -119.0125961303711,
                    212.44346618652344
                ],
                [
                    -33.12868881225586,
                    -175.35108947753906,
                    173.74217224121094
                ],
                [
                    208.24937438964844,
                    -84.5129165649414,
                    -109.0576171875
                ],
                [
                    221.69569396972656,
                    -99.24177551269531,
                    -52.963470458984375
                ],
                [
                    -166.00775146484375,
                    -180.65858459472656,
                    -49.84478759765625
                ],
                [
                    -197.84902954101562,
                    -142.6249237060547,
                    -57.60972213745117
                ],
                [
                    -114.55778503417969,
                    -175.36875915527344,
                    133.69747924804688
                ],
                [
                    -141.19300842285156,
                    -180.13967895507812,
                    97.31918334960938
                ],
                [
                    -106.1468734741211,
                    -204.27418518066406,
                    93.90200805664062
                ],
                [
                    -160.53643798828125,
                    -174.82456970214844,
                    75.2850341796875
                ],
                [
                    208.16139221191406,
                    -135.554931640625,
                    -2.175028085708618
                ],
                [
                    220.88143920898438,
                    -111.71722412109375,
                    19.783510208129883
                ],
                [
                    193.92840576171875,
                    -154.7161102294922,
                    -14.434998512268066
                ],
                [
                    186.57325744628906,
                    -150.6999053955078,
                    61.89662170410156
                ],
                [
                    34.469642639160156,
                    -169.52294921875,
                    177.97129821777344
                ],
                [
                    -22.144861221313477,
                    -138.35086059570312,
                    205.12522888183594
                ],
                [
                    23.548355102539062,
                    -135.12425231933594,
                    206.24981689453125
                ],
                [
                    50.679229736328125,
                    -147.0931854248047,
                    192.62295532226562
                ],
                [
                    -147.47718811035156,
                    -200.1632537841797,
                    -26.52293586730957
                ],
                [
                    -153.84649658203125,
                    -192.42825317382812,
                    38.265682220458984
                ],
                [
                    -134.2421875,
                    -210.37181091308594,
                    6.893367767333984
                ],
                [
                    -185.54173278808594,
                    -166.74575805664062,
                    7.238163948059082
                ],
                [
                    164.52822875976562,
                    -154.2732391357422,
                    101.13610076904297
                ],
                [
                    123.39904022216797,
                    -163.01148986816406,
                    138.37709045410156
                ],
                [
                    169.24050903320312,
                    -128.9919891357422,
                    125.75958251953125
                ],
                [
                    129.67071533203125,
                    -187.77450561523438,
                    95.26701354980469
                ],
                [
                    -119.34931182861328,
                    -194.42367553710938,
                    -104.91951751708984
                ],
                [
                    -96.89125061035156,
                    -222.8431396484375,
                    -61.764461517333984
                ],
                [
                    -140.32533264160156,
                    -190.1497039794922,
                    -83.92758178710938
                ],
                [
                    54.60689926147461,
                    -208.62037658691406,
                    122.56307983398438
                ],
                [
                    85.28652954101562,
                    -188.97340393066406,
                    130.85704040527344
                ],
                [
                    56.59654998779297,
                    -165.80715942382812,
                    -168.39854431152344
                ],
                [
                    53.121856689453125,
                    -208.51011657714844,
                    -127.96458435058594
                ],
                [
                    105.7795181274414,
                    -176.22726440429688,
                    -144.1084442138672
                ],
                [
                    -80.714599609375,
                    -230.0279083251953,
                    49.53700637817383
                ],
                [
                    -136.2307586669922,
                    -200.0089569091797,
                    59.156272888183594
                ],
                [
                    -115.58975219726562,
                    -217.43685913085938,
                    38.27320861816406
                ],
                [
                    -73.3275146484375,
                    -237.0242919921875,
                    24.415197372436523
                ],
                [
                    166.1034393310547,
                    -183.53463745117188,
                    8.315254211425781
                ],
                [
                    122.47377014160156,
                    -208.0400848388672,
                    50.20903015136719
                ],
                [
                    156.34552001953125,
                    -175.8426513671875,
                    75.6741943359375
                ],
                [
                    153.8225860595703,
                    -189.9307861328125,
                    37.08805465698242
                ],
                [
                    14.916520118713379,
                    -215.24317932128906,
                    124.44510650634766
                ],
                [
                    -15.145609855651855,
                    -217.06748962402344,
                    122.33232116699219
                ],
                [
                    -6.694502353668213,
                    -235.2519989013672,
                    83.66911315917969
                ],
                [
                    -42.452518463134766,
                    -219.35780334472656,
                    112.42431640625
                ],
                [
                    106.58082580566406,
                    -219.20396423339844,
                    -44.11077880859375
                ],
                [
                    116.13301849365234,
                    -202.15391540527344,
                    -89.13253784179688
                ],
                [
                    140.82870483398438,
                    -197.5030517578125,
                    -55.08713150024414
                ],
                [
                    104.41567993164062,
                    -198.43771362304688,
                    104.50825500488281
                ],
                [
                    80.5013198852539,
                    -225.27354431152344,
                    62.30698776245117
                ],
                [
                    55.12384796142578,
                    -220.82666015625,
                    98.28773498535156
                ],
                [
                    88.89317321777344,
                    -214.50245666503906,
                    85.2574234008789
                ],
                [
                    -2.4202871322631836,
                    -219.63539123535156,
                    -119.95124816894531
                ],
                [
                    52.824859619140625,
                    -222.27639770507812,
                    -101.49100494384766
                ],
                [
                    32.69493103027344,
                    -239.90252685546875,
                    -59.30623245239258
                ],
                [
                    -36.40999221801758,
                    -242.9099884033203,
                    44.18719482421875
                ],
                [
                    -13.545753479003906,
