{
    "name": "Tri-way",
    "description": "Three planets orbit an single gas giant. A single super-dense asteroid field garuntees the only way to defend against halley rush is more halleys!",
    "creator": "SonicBlue22",
    "version": "1.0",
    "players": [ 2, 3 ],
    "planets": [
        {
            "name": "O-01",
            "mass": 5000,
            "position_x": 0.05984313786029816,
            "position_y": 60000,
            "velocity_x": -91.28709411621094,
            "velocity_y": 0.00008705814980203286,
            "required_thrust_to_move": 1,
            "starting_planet": false,
            "respawn": true,
            "start_destroyed": false,
            "min_spawn_delay": 30,
            "max_spawn_delay": 35,
            "planet": {
                "seed": 8239,
                "radius": 250,
                "heightRange": 100,
                "waterHeight": 0,
                "waterDepth": 100,
                "temperature": 50,
                "metalDensity": 1,
                "metalClusters": 1,
                "metalSpotLimit": 5,
                "biomeScale": 100.00000013739177,
                "biome": "asteroid",
                "symmetryType": "none",
                "symmetricalMetal": false,
                "symmetricalStarts": false,
                "numArmies": 2,
                "landingZonesPerArmy": 0,
                "landingZoneSize": 0,
                "heightAdjustments": []
            }
        },
        {
            "name": "O-02",
            "mass": 5000,
            "position_x": -0.000715492817107588,
            "position_y": -60000,
            "velocity_x": 91.28709411621094,
            "velocity_y": 0.0000029016978260187898,
            "required_thrust_to_move": 1,
            "starting_planet": false,
            "respawn": true,
            "start_destroyed": false,
            "min_spawn_delay": 30,
            "max_spawn_delay": 35,
            "planet": {
                "seed": 8239,
                "radius": 250,
                "heightRange": 100,
                "waterHeight": 0,
                "waterDepth": 100,
                "temperature": 50,
                "metalDensity": 1,
                "metalClusters": 1,
                "metalSpotLimit": 5,
                "biomeScale": 100.00000013739177,
                "biome": "asteroid",
                "symmetryType": "none",
                "symmetricalMetal": false,
                "symmetricalStarts": false,
                "numArmies": 2,
                "landingZonesPerArmy": 0,
                "landingZoneSize": 0,
                "heightAdjustments": []
            }
        },
        {
            "name": "O-03",
            "mass": 5000,
            "position_x": 60000,
            "position_y": -0.005245366599410772,
            "velocity_x": 0.000003990285676991334,
            "velocity_y": 91.28709411621094,
            "required_thrust_to_move": 1,
            "starting_planet": false,
            "respawn": true,
            "start_destroyed": false,
            "min_spawn_delay": 30,
            "max_spawn_delay": 35,
            "planet": {
                "seed": 8239,
                "radius": 250,
                "heightRange": 100,
                "waterHeight": 0,
                "waterDepth": 100,
                "temperature": 50,
                "metalDensity": 1,
                "metalClusters": 1,
                "metalSpotLimit": 5,
                "biomeScale": 100.00000013739177,
                "biome": "asteroid",
                "symmetryType": "none",
                "symmetricalMetal": false,
                "symmetricalStarts": false,
                "numArmies": 2,
                "landingZonesPerArmy": 0,
                "landingZoneSize": 0,
                "heightAdjustments": []
            }
        },
        {
            "name": "O-04",
            "mass": 5000,
            "position_x": -60000,
            "position_y": 0,
            "velocity_x": 0.000003990285676991334,
            "velocity_y": -91.28709411621094,
            "required_thrust_to_move": 1,
            "starting_planet": false,
            "respawn": true,
            "start_destroyed": true,
            "min_spawn_delay": 30,
            "max_spawn_delay": 35,
            "planet": {
                "seed": 8239,
                "radius": 250,
                "heightRange": 100,
                "waterHeight": 0,
                "waterDepth": 100,
                "temperature": 50,
                "metalDensity": 1,
                "metalClusters": 1,
                "metalSpotLimit": 5,
                "biomeScale": 100.00000013739177,
                "biome": "asteroid",
                "symmetryType": "none",
                "symmetricalMetal": false,
                "symmetricalStarts": false,
                "numArmies": 2,
                "landingZonesPerArmy": 0,
                "landingZoneSize": 0,
                "heightAdjustments": []
            }
        },
        {
            "name": "Air",
            "mass": 50000,
            "position_x": 125000,
            "position_y": -0.010927846655249596,
            "velocity_x": 0.0000027645507998386165,
            "velocity_y": 63.24555206298828,
            "required_thrust_to_move": 0,
            "starting_planet": false,
            "respawn": false,
            "start_destroyed": false,
            "min_spawn_delay": 0,
            "max_spawn_delay": 0,
            "planet": {
                "seed": 569472960,
                "radius": 1000,
                "heightRange": 0,
                "waterHeight": 0,
                "waterDepth": 100,
                "temperature": 50,
                "metalDensity": 0,
                "metalClusters": 0,
                "metalSpotLimit": -1,
                "biomeScale": 100.00000013739177,
                "biome": "gas",
                "symmetryType": "none",
                "symmetricalMetal": false,
                "symmetricalStarts": false,
                "numArmies": 2,
                "landingZonesPerArmy": 0,
                "landingZoneSize": 0,
                "heightAdjustments": []
            }
        },
        {
            "name": "Earth",
            "mass": 10000,
            "position_x": 121600,
            "position_y": 9300,
            "velocity_x": -149.23374938964844,
            "velocity_y": 8.687030792236328,
            "required_thrust_to_move": 4,
            "starting_planet": true,
            "respawn": false,
            "start_destroyed": false,
            "min_spawn_delay": 0,
            "max_spawn_delay": 0,
            "planet": {
                "seed": 693547776,
                "radius": 300,
                "heightRange": 0,
                "waterHeight": 35.000003814697266,
                "waterDepth": 0,
                "temperature": 100,
                "metalDensity": 0,
                "metalClusters": 0,
                "metalSpotLimit": -1,
                "biomeScale": 75.00000006869588,
                "biome": "desert",
                "symmetryType": "none",
                "symmetricalMetal": false,
                "symmetricalStarts": false,
                "numArmies": 2,
                "landingZonesPerArmy": 0,
                "landingZoneSize": 100,
                "heightAdjustments": []
            },
            "planetCSG": [
                {
                    "spec": "/pa/terrain/desert/brushes/desert_plateau_11.json",
                    "proj": "BP_Bend",
                    "op": "BO_Add",
                    "position": [
                        -288.4122314453125,
                        -1.6878814697265625,
                        84.87808227539062
                    ],
                    "height": 300.647216796875,
                    "transform": [
                        0.8809076547622681,
                        -0.013103879056870937,
                        -3.8564021587371826,
                        -288.4122619628906,
                        -0.013103879056870937,
                        3.1199214458465576,
                        -0.02256890945136547,
                        -1.687881588935852,
                        2.993028402328491,
                        0.01751616783440113,
                        1.13491690158844,
                        84.87806701660156
                    ],
                    "scale": [
                        3.119997978210449,
                        3.119997978210449,
                        4.019997596740723
                    ],
                    "rotation": 0,
                    "weight": [
                        0,
                        0,
                        0,
                        0
                    ],
                    "weightHard": false,
                    "weightScale": [
                        1,
                        1,
                        1
                    ],
                    "mirrored": false,
                    "twinId": 0,
                    "flooded": false,
                    "pathable": false,
                    "mergeable": false,
                    "no_features": false
                },
                {
                    "spec": "/pa/terrain/desert/brushes/desert_ruins_01.json",
                    "proj": "BP_Bend",
                    "op": "BO_Add",
                    "position": [
                        -287.3328857421875,
                        -3.2268829345703125,
                        87.76222229003906
                    ],
                    "height": 338.454345703125,
                    "transform": [
                        0.2045314610004425,
                        -0.0055643473751842976,
                        -0.6694298386573792,
                        -323.6733703613281,
                        -0.0055643473751842976,
                        0.6999377608299255,
                        -0.007518010679632425,
                        -3.6350033283233643,
                        0.6694298386573792,
                        0.007518010679632425,
                        0.2044689655303955,
                        98.86197662353516
                    ],
                    "scale": [
                        0.7000002861022949,
                        0.7000002861022949,
                        0.7000002861022949
                    ],
                    "rotation": 0,
                    "weight": [
                        0,
                        0,
                        0,
                        0
                    ],
                    "weightHard": false,
                    "weightScale": [
                        1,
                        1,
                        1
                    ],
                    "mirrored": false,
                    "twinId": 0,
                    "flooded": false,
                    "pathable": false,
                    "mergeable": false,
                    "no_features": true
                }
            ],
            "metal_spots": [
                [
                    -260.75335693359375,
                    148.5277099609375,
                    7.7724456787109375
                ],
                [
                    -255.96905517578125,
                    148.98741149902344,
                    -52.533241271972656
                ],
                [
                    -243.8934326171875,
                    168.93386840820312,
                    44.675323486328125
                ],
                [
                    -285.555908203125,
                    -44.44203186035156,
                    -83.52993774414062
                ],
                [
                    -279.6795654296875,
                    -89.8245849609375,
                    -62.51172637939453
                ],
                [
                    -180.21612548828125,
                    90.0785140991211,
                    221.6117401123047
                ],
                [
                    -163.60693359375,
                    35.777587890625,
                    248.6214599609375
                ],
                [
                    -192.22137451171875,
                    -148.5008544921875,
                    176.5498504638672
                ],
                [
                    -217.1427001953125,
                    -177.2353515625,
                    110.90716552734375
                ],
                [
                    -242.0364990234375,
                    -176.25625610351562,
                    31.9046630859375
                ],
                [
                    -221.0330810546875,
                    -195.3955078125,
                    62.71260070800781
                ],
                [
                    -196.37237548828125,
                    -178.23306274414062,
                    141.94248962402344
                ],
                [
                    -265.9971923828125,
                    121.57504272460938,
                    -70.22048950195312
                ],
                [
                    -249.3658447265625,
                    148.23513793945312,
                    74.52615356445312
                ]
            ],
            "landing_zones": {
                "list": [
                    [
                        -224.2998046875,
                        198.2487030029297,
                        -27.57708740234375
                    ],
                    [
                        -175.54681396484375,
                        -223.78872680664062,
                        100.6082763671875
                    ]
                ],
                "rules": [
                    {
                        "min": 2,
                        "max": 6
                    },
                    {
                        "min": 4,
                        "max": 6
                    }
                ]
            }
        },
        {
            "name": "Fire",
            "mass": 10000,
            "position_x": 118899.9921875,
            "position_y": -7800.01220703125,
            "velocity_x": 125.16374969482422,
            "velocity_y": -34.63902282714844,
            "required_thrust_to_move": 4,
            "starting_planet": true,
            "respawn": false,
            "start_destroyed": false,
            "min_spawn_delay": 0,
            "max_spawn_delay": 0,
            "planet": {
                "seed": 1534608768,
                "radius": 300,
                "heightRange": 0,
                "waterHeight": 33,
                "waterDepth": 100,
                "temperature": 100,
                "metalDensity": 0,
                "metalClusters": 0,
                "metalSpotLimit": -1,
                "biomeScale": 50,
                "biome": "lava",
                "symmetryType": "none",
                "symmetricalMetal": false,
                "symmetricalStarts": false,
                "numArmies": 2,
                "landingZonesPerArmy": 0,
                "landingZoneSize": 100,
                "heightAdjustments": []
            },
            "planetCSG": [
                {
                    "proj": "BP_Bend",
                    "spec": "/pa/terrain/lava/brushes/lava_volcano_04.json",
                    "height": 303.7452392578125,
                    "op": "BO_Add",
                    "position": [
                        -192.324462890625,
                        42.84515380859375,
                        231.1639404296875
                    ],
                    "transform": [
                        1.2203025817871094,
                        0.08013156801462173,
                        -1.8235481977462769,
                        -192.324462890625,
                        0.08013156801462173,
                        1.5621479749679565,
                        0.40624162554740906,
                        42.84515380859375,
                        1.000419020652771,
                        -0.22286871075630188,
                        2.19180965423584,
                        231.1639404296875
                    ],
                    "scale": [
                        1.579999327659607,
                        1.579999327659607,
                        2.879998207092285
                    ],
                    "rotation": 0,
                    "weight": [
                        0,
                        0,
                        0,
                        0
                    ],
                    "weightHard": false,
                    "weightScale": [
                        1,
                        1,
                        1
                    ],
                    "mirrored": false,
                    "twinId": 0,
                    "pathable": false,
                    "flooded": false,
                    "mergeable": false,
                    "no_features": false
                }
            ],
            "metal_spots": [
                [
                    -254.1920166015625,
                    137.84182739257812,
                    90.24234771728516
                ],
                [
                    -285.260009765625,
                    71.91616821289062,
                    72.98763275146484
                ],
                [
                    -274.192626953125,
                    119.52630615234375,
                    48.021732330322266
                ],
                [
                    -189.69287109375,
                    189.75238037109375,
                    142.89456176757812
                ],
                [
                    -41.07415771484375,
                    -5.153076171875,
                    301.02001953125
                ],
                [
                    -53.9088134765625,
                    -82.70831298828125,
                    285.9307861328125
                ],
                [
                    -149.94461059570312,
                    -130.935302734375,
                    227.432861328125
                ],
                [
                    -89.18719482421875,
                    -135.5140380859375,
                    254.235107421875
                ],
                [
                    -8.587158203125,
                    -50.34574890136719,
                    298.5728759765625
                ],
                [
                    -214.2427978515625,
                    194.04266357421875,
                    91.28643798828125
                ],
                [
                    -250.2666015625,
                    -116.58810424804688,
                    121.195556640625
                ],
                [
                    -281.56103515625,
                    -54.91123962402344,
                    95.86505126953125
                ],
                [
                    -44.46636962890625,
                    120.27859497070312,
                    276.31103515625
                ],
                [
                    -73.506103515625,
                    181.2923583984375,
                    234.046875
                ]
            ],
            "landing_zones": {
                "list": [
                    [
                        -248.446533203125,
                        169.9124755859375,
                        33.6802978515625
                    ],
                    [
                        -21.03131103515625,
                        -129.17742919921875,
                        271.48291015625
                    ]
                ],
                "rules": [
                    {
                        "min": 2,
                        "max": 6
                    },
                    {
                        "min": 4,
                        "max": 6
                    }
                ]
            }
        },
        {
            "name": "Water",
            "mass": 10000,
            "position_x": 134799.984375,
            "position_y": -1400.0145263671875,
            "velocity_x": 22.473995208740234,
            "velocity_y": 220.56289672851562,
            "required_thrust_to_move": 4,
            "starting_planet": true,
            "respawn": false,
            "start_destroyed": false,
            "min_spawn_delay": 0,
            "max_spawn_delay": 0,
            "planet": {
                "seed": 109067736,
                "radius": 300,
                "heightRange": 0,
                "waterHeight": 0,
                "waterDepth": 100,
                "temperature": 0,
                "metalDensity": 0,
                "metalClusters": 0,
                "metalSpotLimit": -1,
                "biomeScale": 50,
                "biome": "earth",
                "symmetryType": "none",
                "symmetricalMetal": false,
                "symmetricalStarts": false,
                "numArmies": 2,
                "landingZonesPerArmy": 0,
                "landingZoneSize": 100,
                "heightAdjustments": []
            },
            "planetCSG": [
                {
                    "proj": "BP_Bend",
                    "spec": "/pa/terrain/mountain/brushes/mountain_mountain_05.json",
                    "height": 297.8385009765625,
                    "op": "BO_Add",
                    "position": [
                        -251.789306640625,
                        137.8560791015625,
                        79.40798950195312
                    ],
                    "transform": [
                        1.3726240396499634,
                        0.9731222987174988,
                        -1.656962513923645,
                        -251.789306640625,
                        0.9731222987174988,
                        2.6172080039978027,
                        0.9071963429450989,
                        137.85606384277344,
                        2.6629726886749268,
                        -1.457992672920227,
                        0.5225639343261719,
                        79.407958984375
                    ],
                    "scale": [
                        3.1499979496002197,
                        3.1499979496002197,
                        1.96000075340271
                    ],
                    "rotation": 0,
                    "weight": [
                        0,
                        0,
                        0,
                        0
                    ],
                    "weightHard": false,
                    "weightScale": [
                        1,
                        1,
                        1
                    ],
                    "mirrored": false,
                    "twinId": 0,
                    "pathable": false,
                    "flooded": false,
                    "mergeable": false,
                    "no_features": true
                }
            ],
            "metal_spots": [
                [
                    -133.35064697265625,
                    191.0660400390625,
                    186.1772918701172
                ],
                [
                    -108.4234619140625,
                    254.35107421875,
                    113.22746276855469
                ],
                [
                    -129.1199951171875,
                    267.418212890625,
                    32.92927551269531
                ],
                [
                    -93.4732666015625,
                    271.51513671875,
                    82.34628295898438
                ],
                [
                    -100.676513671875,
                    228.9630126953125,
                    163.2986602783203
                ],
                [
                    -280.5330810546875,
                    -59.62860107421875,
                    81.31696319580078
                ],
                [
                    -291.8385009765625,
                    -48.0960693359375,
                    20.057937622070312
                ],
                [
                    -292.898193359375,
                    -2.2529296875,
                    -46.233551025390625
                ],
                [
                    -292.67138671875,
                    -41.6019287109375,
                    -16.231735229492188
                ],
                [
                    -282.7010498046875,
                    -77.61688232421875,
                    49.032073974609375
                ],
                [
                    -165.2860107421875,
                    75.4833984375,
                    238.28387451171875
                ],
                [
                    -197.9500732421875,
                    37.1678466796875,
                    221.67120361328125
                ],
                [
                    -249.8876953125,
                    123.8055419921875,
                    -105.66879272460938
                ],
                [
                    -219.04052734375,
                    179.6180419921875,
                    -96.20858764648438
                ]
            ],
            "landing_zones": {
                "list": [
                    [
                        -281.427978515625,
                        -91.66928100585938,
                        -8.1676025390625
                    ],
                    [
                        -53.034912109375,
                        268.91253662109375,
                        120.0958251953125
                    ]
                ],
                "rules": [
                    {
                        "min": 2,
                        "max": 6
                    },
                    {
                        "min": 4,
                        "max": 6
                    }
                ]
            }
        }
    ]
}