{
    "name": "Unfair",
    "description": "Two planets with almost equal metal density, but very unequal surface area.",
    "creator": "SonicBlue22",
    "version": "1.0",
    "players": [ 2, 2 ],
    "planets": [
        {
            "name": "Ples Nerf",
            "mass": 10000,
            "position_x": 25000,
            "position_y": 0,
            "velocity_x": -0.000006181723165354924,
            "velocity_y": 141.42135620117188,
            "required_thrust_to_move": 0,
            "starting_planet": true,
            "respawn": false,
            "start_destroyed": false,
            "min_spawn_delay": 0,
            "max_spawn_delay": 0,
            "planet": {
                "seed": 1211087744,
                "radius": 500,
                "heightRange": 20,
                "waterHeight": 36,
                "waterDepth": 100,
                "temperature": 100,
                "metalDensity": 0,
                "metalClusters": 0,
                "metalSpotLimit": -1,
                "biomeScale": 50,
                "biome": "lava",
                "symmetryType": "none",
                "symmetricalMetal": false,
                "symmetricalStarts": false,
                "numArmies": 2,
                "landingZonesPerArmy": 1,
                "landingZoneSize": 100,
                "heightAdjustments": []
            },
            "planetCSG": [
                {
                    "proj": "BP_Bend",
                    "spec": "/pa/terrain/lava/brushes/lava_t3_medium_4_ramp.json",
                    "height": 508.1737976074219,
                    "op": "BO_Add",
                    "position": [
                        -144.03631591796875,
                        -219.005615234375,
                        -435.3511962890625
                    ],
                    "transform": [
                        0.43938368558883667,
                        -0.8524108529090881,
                        -0.10203824937343597,
                        -144.0363311767578,
                        -0.8524108529090881,
                        -0.2960813045501709,
                        -0.15514802932739258,
                        -219.00564575195312,
                        0.28343909978866577,
                        0.43096601963043213,
                        -0.3084116578102112,
                        -435.35125732421875
                    ],
                    "scale": [
                        1,
                        1,
                        0.3600006103515625
                    ],
                    "rotation": 0,
                    "weight": [
                        0,
                        0,
                        0,
                        0
                    ],
                    "weightHard": false,
                    "weightScale": [
                        1,
                        1,
                        1
                    ],
                    "mirrored": false,
                    "twinId": 0,
                    "pathable": true,
                    "flooded": false,
                    "mergeable": false,
                    "no_features": false
                },
                {
                    "proj": "BP_Bend",
                    "spec": "/pa/terrain/lava/brushes/lava_t1_large_8_ramp.json",
                    "height": 504.6405334472656,
                    "op": "BO_Add",
                    "position": [
                        -86.165771484375,
                        -494.352783203125,
                        -53.412109375
                    ],
                    "transform": [
                        0.9673944711685181,
                        -0.1870652735233307,
                        -0.1707468330860138,
                        -86.165771484375,
                        -0.1870652735233307,
                        -0.07323634624481201,
                        -0.979613721370697,
                        -494.352783203125,
                        0.1707468330860138,
                        0.979613721370697,
                        -0.10584187507629395,
                        -53.41210174560547
                    ],
                    "scale": [
                        1,
                        1,
                        1
                    ],
                    "rotation": 0,
                    "weight": [
                        0,
                        0,
                        0,
                        0
                    ],
                    "weightHard": false,
                    "weightScale": [
                        1,
                        1,
                        1
                    ],
                    "mirrored": false,
                    "twinId": 0,
                    "pathable": true,
                    "flooded": false,
                    "mergeable": false,
                    "no_features": false
                },
                {
                    "proj": "BP_Bend",
                    "spec": "/pa/terrain/lava/brushes/lava_volcano_06.json",
                    "height": 510.00799560546875,
                    "op": "BO_Add",
                    "position": [
                        -171.3855743408203,
                        -326.07501220703125,
                        -352.71832275390625
                    ],
                    "transform": [
                        0.41199594736099243,
                        -0.4528227150440216,
                        -0.2621151804924011,
                        -171.38563537597656,
                        -0.4528227150440216,
                        -0.2115318775177002,
                        -0.4986954629421234,
                        -326.07513427734375,
                        0.2184293568134308,
                        0.4155796468257904,
                        -0.5394433736801147,
                        -352.7184143066406
                    ],
                    "scale": [
                        0.6500003337860107,
                        0.6500003337860107,
                        0.7800002098083496
                    ],
                    "rotation": 0,
                    "weight": [
                        0,
                        0,
                        0,
                        0
                    ],
                    "weightHard": false,
                    "weightScale": [
                        1,
                        1,
                        1
                    ],
                    "mirrored": false,
                    "twinId": 0,
                    "pathable": false,
                    "flooded": false,
                    "mergeable": false,
                    "no_features": false
                },
                {
                    "proj": "BP_Bend",
                    "spec": "/pa/terrain/lava/brushes/lava_volcano_04.json",
                    "height": 513.0572509765625,
                    "op": "BO_Add",
                    "position": [
                        -164.50439453125,
                        -404.874267578125,
                        -268.7802734375
                    ],
                    "transform": [
                        0.7919137477874756,
                        -0.5367483496665955,
                        -0.3238418996334076,
                        -164.50440979003906,
                        -0.5367483496665955,
                        -0.311032235622406,
                        -0.7970318794250488,
                        -404.8742980957031,
                        0.3238418996334076,
                        0.7970318794250488,
                        -0.5291183590888977,
                        -268.7802429199219
                    ],
                    "scale": [
                        1.0099998712539673,
                        1.0099998712539673,
                        1.0099998712539673
                    ],
                    "rotation": 0,
                    "weight": [
                        0,
                        0,
                        0,
                        0
                    ],
                    "weightHard": false,
                    "weightScale": [
                        1,
                        1,
                        1
                    ],
                    "mirrored": false,
                    "twinId": 0,
                    "pathable": false,
                    "flooded": false,
                    "mergeable": false,
                    "no_features": false
                },
                {
                    "proj": "BP_Bend",
                    "spec": "/pa/terrain/lava/brushes/lava_plateau_07.json",
                    "height": 512.40185546875,
                    "op": "BO_Add",
                    "position": [
                        -203.09597778320312,
                        -337.051513671875,
                        -328.182861328125
                    ],
                    "transform": [
                        0.7823985815048218,
                        -0.4803650379180908,
                        -0.3963606357574463,
                        -203.09593200683594,
                        -0.6070148944854736,
                        -0.44592419266700745,
                        -0.6577873229980469,
                        -337.05145263671875,
                        0.13923117518424988,
                        0.7552486658096313,
                        -0.6404792070388794,
                        -328.1827392578125
                    ],
                    "scale": [
                        1,
                        1,
                        1
                    ],
                    "rotation": -0.35999995470046997,
                    "weight": [
                        0,
                        0,
                        0,
                        0
                    ],
                    "weightHard": false,
                    "weightScale": [
                        1,
                        1,
                        1
                    ],
                    "mirrored": false,
                    "twinId": 0,
                    "pathable": false,
                    "flooded": false,
                    "mergeable": false,
                    "no_features": false
                },
                {
                    "proj": "BP_Bend",
                    "spec": "/pa/terrain/lava/brushes/lava_plateau_08.json",
                    "height": 516.53125,
                    "op": "BO_Add",
                    "position": [
                        -259.9490966796875,
                        -364.467529296875,
                        -257.671142578125
                    ],
                    "transform": [
                        0.49462372064590454,
                        -0.7085743546485901,
                        -1.2682124376296997,
                        -259.9490966796875,
                        -0.7085743546485901,
                        0.0065271854400634766,
                        -1.7781260013580322,
                        -364.467529296875,
                        0.5032591819763184,
                        0.7056059837341309,
                        -1.2570991516113281,
                        -257.6711730957031
                    ],
                    "scale": [
                        1,
                        1,
                        2.519998550415039
                    ],
                    "rotation": 0,
                    "weight": [
                        0,
                        0,
                        0,
                        0
                    ],
                    "weightHard": false,
                    "weightScale": [
                        1,
                        1,
                        1
                    ],
                    "mirrored": false,
                    "twinId": 0,
                    "pathable": false,
                    "flooded": false,
                    "mergeable": false,
                    "no_features": false
                }
            ],
            "metal_spots": [
                [
                    107.05584716796875,
                    330.145751953125,
                    360.1549072265625
                ],
                [
                    131.52899169921875,
                    337.2232971191406,
                    345.0830078125
                ],
                [
                    133.5283203125,
                    310.580322265625,
                    368.3916320800781
                ],
                [
                    163.5479736328125,
                    317.9840087890625,
                    349.6924743652344
                ],
                [
                    283.93353271484375,
                    336.7015380859375,
                    228.24917602539062
                ],
                [
                    -94.56027221679688,
                    231.9190673828125,
                    427.09197998046875
                ],
                [
                    -331.31475830078125,
                    346.13092041015625,
                    131.2310791015625
                ],
                [
                    -363.1102294921875,
                    325.5994873046875,
                    97.08612060546875
                ],
                [
                    -387.97332763671875,
                    298.1900634765625,
                    81.46551513671875
                ],
                [
                    -272.1536865234375,
                    211.60870361328125,
                    353.7166442871094
                ],
                [
                    -311.12249755859375,
                    193.17730712890625,
                    333.04180908203125
                ],
                [
                    -316.41302490234375,
                    152.98199462890625,
                    348.32672119140625
                ],
                [
                    -39.57557678222656,
                    447.753662109375,
                    210.91949462890625
                ],
                [
                    265.9830322265625,
                    122.34793090820312,
                    398.606689453125
                ],
                [
                    -200.97763061523438,
                    -443.90185546875,
                    -197.48422241210938
                ],
                [
                    -158.94139099121094,
                    -452.6322021484375,
                    -214.13070678710938
                ],
                [
                    -114.87677001953125,
                    -469.0303955078125,
                    -204.67337036132812
                ],
                [
                    75.62211608886719,
                    -501.79736328125,
                    -67.90619659423828
                ],
                [
                    62.94285583496094,
                    -507.83740234375,
                    6.8504638671875
                ],
                [
                    -153.674072265625,
                    -483.639892578125,
                    83.6937255859375
                ],
                [
                    -83.71180725097656,
                    -493.227783203125,
                    92.04498291015625
                ],
                [
                    -74.11373901367188,
                    -223.24224853515625,
                    -463.8233642578125
                ],
                [
                    -77.20285034179688,
                    -258.79632568359375,
                    -445.3916015625
                ],
                [
                    -243.41400146484375,
                    -205.94671630859375,
                    -414.218505859375
                ],
                [
                    -157.75308227539062,
                    -149.56201171875,
                    -471.25714111328125
                ],
                [
                    -166.63418579101562,
                    -298.1511535644531,
                    -393.8646240234375
                ],
                [
                    -398.8543701171875,
                    153.4123077392578,
                    -281.96832275390625
                ],
                [
                    -417.74658203125,
                    153.74354553222656,
                    -248.0262451171875
                ],
                [
                    -419.292724609375,
                    122.96292114257812,
                    -265.5513916015625
                ],
                [
                    -462.5970458984375,
                    -194.27410888671875,
                    -79.67575073242188
                ],
                [
                    -473.8441162109375,
                    -175.7335205078125,
                    -43.303466796875
                ],
                [
                    -459.4859619140625,
                    -213.673095703125,
                    -42.84228515625
                ],
                [
                    -289.093994140625,
                    -236.42724609375,
                    342.2237548828125
                ],
                [
                    -298.9017333984375,
                    -270.6851806640625,
                    304.8658447265625
                ],
                [
                    -255.3914794921875,
                    -271.8001708984375,
                    343.9017333984375
                ],
                [
                    276.44866943359375,
                    -345.897705078125,
                    233.21038818359375
                ],
                [
                    243.64752197265625,
                    -300.33148193359375,
                    -329.64306640625
                ],
                [
                    201.52789306640625,
                    195.81549072265625,
                    -407.1197509765625
                ],
                [
                    -479.46044921875,
                    63.222660064697266,
                    116.208251953125
                ],
                [
                    -478.8609619140625,
                    31.14860725402832,
                    136.3936767578125
                ],
                [
                    -466.223876953125,
                    73.8729019165039,
                    151.1849365234375
                ],
                [
                    -492.46630859375,
                    19.101947784423828,
                    99.37359619140625
                ],
                [
                    227.80731201171875,
                    120.03564453125,
                    423.3106689453125
                ],
                [
                    249.33779907226562,
                    155.2152099609375,
                    401.0496826171875
                ],
                [
                    -67.5887451171875,
                    438.7540283203125,
                    224.8043212890625
                ],
                [
                    -12.3262939453125,
                    446.57305908203125,
                    216.52978515625
                ],
                [
                    -449.2001953125,
                    -147.1541748046875,
                    177.68121337890625
                ],
                [
                    -496.652099609375,
                    15.331253051757812,
                    -113.16531372070312
                ],
                [
                    -371.2740478515625,
                    -337.75146484375,
                    82.14482116699219
                ],
                [
                    -385.284423828125,
                    -140.7547607421875,
                    -310.7578125
                ],
                [
                    -149.7889404296875,
                    104.55889892578125,
                    -472.939697265625
                ],
                [
                    459.6134033203125,
                    81.09805297851562,
                    -171.281005859375
                ],
                [
                    42.0830078125,
                    389.6217041015625,
                    -306.212646484375
                ]
            ],
            "landing_zones": {
                "list": [
                    [
                        128.36581420898438,
                        322.27691650390625,
                        359.9010009765625
                    ]
                ],
                "rules": [
                    {
                        "min": 0,
                        "max": 32
                    }
                ]
            }
        },
        {
            "name": "Ples Buff",
            "mass": 5000,
            "position_x": 30000,
            "position_y": 0,
            "velocity_x": -0.000001810584308259422,
            "velocity_y": 41.421356201171875,
            "required_thrust_to_move": 3,
            "starting_planet": true,
            "respawn": false,
            "start_destroyed": false,
            "min_spawn_delay": 0,
            "max_spawn_delay": 0,
            "planet": {
                "seed": 1888829440,
                "radius": 250,
                "heightRange": 20,
                "waterHeight": 0,
                "waterDepth": 100,
                "temperature": 0,
                "metalDensity": 25,
                "metalClusters": 25,
                "metalSpotLimit": -1,
                "biomeScale": 50,
                "biome": "moon",
                "symmetryType": "none",
                "symmetricalMetal": false,
                "symmetricalStarts": false,
                "numArmies": 2,
                "landingZonesPerArmy": 0,
                "landingZoneSize": 100,
                "heightAdjustments": []
            },
            "planetCSG": [
                {
                    "spec": "/pa/terrain/moon/brushes/moon_crater_02.json",
                    "proj": "BP_Bend",
                    "op": "BO_Subtract",
                    "position": [
                        -171.5770721435547,
                        -71.67585754394531,
                        -171.5770721435547
                    ],
                    "height": 253.01148986816406,
                    "transform": [
                        -0.683928370475769,
                        0.46654221415519714,
                        -0.24175584316253662,
                        -171.5770721435547,
                        0.8290103077888489,
                        0.6927465796470642,
                        -0.100992850959301,
                        -71.67585754394531,
                        0.3376116454601288,
                        -0.7559353113174438,
                        -0.24175584316253662,
                        -171.5770721435547
                    ],
                    "scale": [
                        1.1264979839324951,
                        1.1264979839324951,
                        0.35649871826171875
                    ],
                    "rotation": 1.5464729070663452,
                    "weight": [
                        2,
                        2,
                        2,
                        2
                    ],
                    "weightHard": true,
                    "weightScale": [
                        1,
                        1,
                        1
                    ],
                    "mirrored": false,
                    "twinId": 0,
                    "flooded": false,
                    "pathable": true,
                    "mergeable": true,
                    "no_features": false
                },
                {
                    "spec": "/pa/terrain/moon/brushes/moon_crater_02.json",
                    "proj": "BP_Bend",
                    "op": "BO_Subtract",
                    "position": [
                        121.88768005371094,
                        -222.68162536621094,
                        12.19571304321289
                    ],
                    "height": 254.1504364013672,
                    "transform": [
                        -0.7359184622764587,
                        0.7855165004730225,
                        0.22860242426395416,
                        121.88768005371094,
                        -0.45056331157684326,
                        0.3828144371509552,
                        -0.41764315962791443,
                        -222.68162536621094,
                        -0.8718476295471191,
                        -0.8608824014663696,
                        0.02287321537733078,
                        12.195685386657715
                    ],
                    "scale": [
                        1.2266627550125122,
                        1.2266627550125122,
                        0.4766634702682495
                    ],
                    "rotation": 4.434135437011719,
                    "weight": [
                        2,
                        2,
                        2,
                        2
                    ],
                    "weightHard": true,
                    "weightScale": [
                        1,
                        1,
                        1
                    ],
                    "mirrored": false,
                    "twinId": 0,
                    "flooded": false,
                    "pathable": true,
                    "mergeable": true,
                    "no_features": false
                },
                {
                    "spec": "/pa/terrain/moon/brushes/moon_crater_02.json",
                    "proj": "BP_Bend",
                    "op": "BO_Subtract",
                    "position": [
                        -42.16862487792969,
                        241.0068359375,
                        38.37358093261719
                    ],
                    "height": 247.65908813476562,
                    "transform": [
                        0.3385447561740875,
                        0.4945366382598877,
                        -0.03885481506586075,
                        -42.16862487792969,
                        -0.021143727004528046,
                        0.1384110152721405,
                        0.22206737101078033,
                        241.00682067871094,
                        0.5048201680183411,
                        -0.32585111260414124,
                        0.0353579968214035,
                        38.37356948852539
                    ],
                    "scale": [
                        0.6081965565681458,
                        0.6081965565681458,
                        0.2281968742609024
                    ],
                    "rotation": 5.458795070648193,
                    "weight": [
                        2,
                        2,
                        2,
                        2
                    ],
                    "weightHard": true,
                    "weightScale": [
                        1,
                        1,
                        1
                    ],
                    "mirrored": false,
                    "twinId": 0,
                    "flooded": false,
                    "pathable": true,
                    "mergeable": true,
                    "no_features": false
                },
                {
                    "spec": "/pa/terrain/moon/brushes/moon_crater_02.json",
                    "proj": "BP_Bend",
                    "op": "BO_Subtract",
                    "position": [
                        -137.22096252441406,
                        -200.17578125,
                        80.92559814453125
                    ],
                    "height": 255.82980346679688,
                    "transform": [
                        -0.09968319535255432,
                        -0.7972639799118042,
                        -0.2209893763065338,
                        -137.22096252441406,
                        0.41279101371765137,
                        0.42548343539237976,
                        -0.3223758339881897,
                        -200.17578125,
                        0.8520438075065613,
                        -0.29940900206565857,
                        0.13032770156860352,
                        80.92557525634766
                    ],
                    "scale": [
                        0.952004075050354,
                        0.952004075050354,
                        0.41200459003448486
                    ],
                    "rotation": 1.3077890872955322,
                    "weight": [
                        2,
                        2,
                        2,
                        2
                    ],
                    "weightHard": true,
                    "weightScale": [
                        1,
                        1,
                        1
                    ],
                    "mirrored": false,
                    "twinId": 0,
                    "flooded": false,
                    "pathable": true,
                    "mergeable": true,
                    "no_features": false
                },
                {
                    "spec": "/pa/terrain/moon/brushes/moon_crater_02.json",
                    "proj": "BP_Bend",
                    "op": "BO_Subtract",
                    "position": [
                        88.26976776123047,
                        -66.84567260742188,
                        227.14962768554688
                    ],
                    "height": 252.69912719726562,
                    "transform": [
                        0.2871072590351105,
                        -1.1103559732437134,
                        0.1376187801361084,
                        88.26976013183594,
                        1.1670153141021729,
                        0.17708820104599,
                        -0.10421709716320038,
                        -66.84566497802734,
                        0.23186050355434418,
                        0.4835950434207916,
                        0.35414227843284607,
                        227.14962768554688
                    ],
                    "scale": [
                        1.2239749431610107,
                        1.2239749431610107,
                        0.39397573471069336
                    ],
                    "rotation": 1.3697212934494019,
                    "weight": [
                        2,
                        2,
                        2,
                        2
                    ],
                    "weightHard": true,
                    "weightScale": [
                        1,
                        1,
                        1
                    ],
                    "mirrored": false,
                    "twinId": 0,
                    "flooded": false,
                    "pathable": true,
                    "mergeable": true,
                    "no_features": false
                },
                {
                    "spec": "/pa/terrain/moon/brushes/moon_crater_02.json",
                    "proj": "BP_Bend",
                    "op": "BO_Subtract",
                    "position": [
                        96.71334075927734,
                        176.68959045410156,
                        145.03854370117188
                    ],
                    "height": 248.21131896972656,
                    "transform": [
                        -0.2718192934989929,
                        0.9994734525680542,
                        0.0797451063990593,
                        96.71334075927734,
                        -0.5996767282485962,
                        -0.5141056776046753,
                        0.14568963646888733,
                        176.68959045410156,
                        0.9117934703826904,
                        -0.04016372561454773,
                        0.11959170550107956,
                        145.0385284423828
                    ],
                    "scale": [
                        1.124662160873413,
                        1.124662160873413,
                        0.2046629637479782
                    ],
                    "rotation": 4.255593299865723,
                    "weight": [
                        2,
                        2,
                        2,
                        2
                    ],
                    "weightHard": true,
                    "weightScale": [
                        1,
                        1,
                        1
                    ],
                    "mirrored": false,
                    "twinId": 0,
                    "flooded": false,
                    "pathable": true,
                    "mergeable": true,
                    "no_features": false
                },
                {
                    "spec": "/pa/terrain/moon/brushes/moon_crater_02.json",
                    "proj": "BP_Bend",
                    "op": "BO_Subtract",
                    "position": [
                        34.61481475830078,
                        197.83444213867188,
                        -160.47573852539062
                    ],
                    "height": 257.0780334472656,
                    "transform": [
                        0.8739885091781616,
                        1.0416855812072754,
                        0.05551011487841606,
                        34.61481857299805,
                        0.5700246691703796,
                        -0.6655733585357666,
                        0.3172575533390045,
                        197.83445739746094,
                        0.8912468552589417,
                        -0.5958257913589478,
                        -0.25734713673591614,
                        -160.4757080078125
                    ],
                    "scale": [
                        1.372262716293335,
                        1.372262716293335,
                        0.4122636318206787
                    ],
                    "rotation": 5.12846565246582,
                    "weight": [
                        2,
                        2,
                        2,
                        2
                    ],
                    "weightHard": true,
                    "weightScale": [
                        1,
                        1,
                        1
                    ],
                    "mirrored": false,
                    "twinId": 0,
                    "flooded": false,
                    "pathable": true,
                    "mergeable": true,
                    "no_features": false
                },
                {
                    "spec": "/pa/terrain/moon/brushes/moon_crater_02.json",
                    "proj": "BP_Bend",
                    "op": "BO_Subtract",
                    "position": [
                        175.9100799560547,
                        -73.48595428466797,
                        -175.9100799560547
                    ],
                    "height": 259.4010314941406,
                    "transform": [
                        0.7186672687530518,
                        0.31703799962997437,
                        0.22974875569343567,
                        175.9100799560547,
                        0.6536608338356018,
                        -0.7895371913909912,
                        -0.09597691148519516,
                        -73.48594665527344,
                        0.44560226798057556,
                        0.6468650698661804,
                        -0.22974872589111328,
                        -175.9100341796875
                    ],
                    "scale": [
                        1.0687921047210693,
                        1.0687921047210693,
                        0.3387928009033203
                    ],
                    "rotation": 1.778298020362854,
                    "weight": [
                        2,
                        2,
                        2,
                        2
                    ],
                    "weightHard": true,
                    "weightScale": [
                        1,
                        1,
                        1
                    ],
                    "mirrored": false,
                    "twinId": 0,
                    "flooded": false,
                    "pathable": true,
                    "mergeable": true,
                    "no_features": false
                }
            ],
            "metal_spots": [
                [
                    -42.57305908203125,
                    238.97467041015625,
                    35.974334716796875
                ],
                [
                    -211.00326538085938,
                    74.41340637207031,
                    111.30963134765625
                ],
                [
                    170.66656494140625,
                    -75.634033203125,
                    -174.90638732910156
                ],
                [
                    122.8433837890625,
                    -216.6541748046875,
                    14.433609008789062
                ],
                [
                    83.04986572265625,
                    -69.9747314453125,
                    223.62701416015625
                ],
                [
                    97.42559814453125,
                    177.1844482421875,
                    140.130615234375
                ],
                [
                    33.059486389160156,
                    190.2236328125,
                    -162.83712768554688
                ],
                [
                    -165.57965087890625,
                    -73.30593872070312,
                    -171.19482421875
                ],
                [
                    -134.53143310546875,
                    -198.8326416015625,
                    75.60176086425781
                ],
                [
                    -207.73211669921875,
                    103.61868286132812,
                    90.82070922851562
                ],
                [
                    -235.47085571289062,
                    51.8193359375,
                    79.19685363769531
                ],
                [
                    -224.91943359375,
                    3.954071044921875,
                    117.5203857421875
                ],
                [
                    -169.40521240234375,
                    101.74749755859375,
                    149.52423095703125
                ],
                [
                    -151.5220947265625,
                    92.65989685058594,
                    173.61309814453125
                ]
            ],
            "landing_zones": {
                "list": [
                    [
                        -204.13323974609375,
                        70.20455932617188,
                        125.05377197265625
                    ]
                ],
                "rules": [
                    {
                        "min": 0,
                        "max": 32
                    }
                ]
            }
        }
    ]
}